solver_type L2R_L2LOSS_SVC_DUAL
nr_class 10
label 1 2 3 4 5 6 7 8 9 10
nr_feature 766
bias -1
w
-0.007204749483498502 0.001019028399259407 0.0080530252748815 0.007746056054649233 0.01160761926876657 -0.001614785641327891 -0.04557161454128943 0.0002559692570385847 -0.03997704769015636 0.005079468465879274 
0.0111077617454648 -0.01559749226160516 0.001436335340255876 -0.01253379777445162 -0.03064765996750701 0.00330877702797458 -0.02204717637330346 0.009648546529697478 0.005810526057441616 0.006622917207788292 
-0.02089598503380525 -0.01515228419287373 -0.01885904645593378 -0.009686883484465367 -0.02069484973246569 0.01183487753642103 0.0138149456472884 0.03104944576457008 -0.03855449769244869 -0.01239141161494912 
0.02682188306453252 -0.01883279034752798 -0.004579066539993434 0.02774077978256475 -0.01597186454566386 -0.01546567212057406 0.004881147923262284 -0.01890577036641443 -0.07469988598658178 0.065281592340447 
0.04530469390454989 0.007215878632721347 -0.0183172578436371 -0.00184752445327341 -0.01210758813206326 -0.04960151680894481 0.05909578596322736 -0.03825979678714172 -0.0486444130748972 0.04165204199711222 
0.05630750525220589 0.003718355120895743 -0.02220293280286699 -0.00277941158732271 -0.0381020960235881 -0.04068636072275723 0.03954219344561914 -0.04461616825517061 -0.02393086407341108 0.05478020231352962 
0.06144925073866624 -0.02696103356768445 -0.008983898909140614 -0.006747369747994508 -0.02152714159170977 0.004113360207966463 -0.01407182491968405 -0.04203894429245666 -0.02935274438181071 -0.005581958915981658 
0.05950658861086928 -0.04419582634235174 -0.01657141143033867 -0.01203131102712422 -0.01010830411179338 0.02408412345271092 -0.01475885728264207 -0.03244806887630881 -0.02837385963084644 0.02492273311752238 
0.00843963846401247 -0.006956399043880658 -0.000216297797129465 0.003004291311453433 -0.02669216201051828 -0.0004527139561843716 -0.02161306783267643 0.006233481292535419 -0.02755571979350508 -0.0007885071139781781 
0.01229868689015472 -0.02580176895572884 -0.001162555256753818 0.00415734712080081 0.01269445812046671 -0.02447378666096784 -0.01075947688477578 -0.0007935288954587287 -0.03417362994223518 0.05389045782228552 
-0.01206130819867873 -0.0393398170232968 -0.03542905542600878 0.008895452503791573 0.1012636338861911 -0.008133548677932199 -0.03935886977192495 -0.005657332935208987 -0.03787530829600588 0.04935728784459641 
-0.02895409389853891 -0.0125597544907573 -0.05635822603400908 0.01699851489353024 0.07979867343291995 -0.0214162878616694 -0.05766016538991855 -0.00834640760813214 -0.008715441484418295 0.03013198695843037 
0.03017109212923648 0.009717117792461262 0.01416087609228262 0.004692420201803576 0.006165243746138828 -0.02056993519809188 -0.001433690065480675 0.007571052742528745 0.005580296486838132 -0.02726355109126737 
0.0539312642179202 -0.006273086336025121 0.0339183597872133 0.005756811619872956 -0.007781201856307361 -0.01665582032766086 -0.005755068981783788 0.003613527412068327 -0.02140489475681143 -0.02825190241987527 
0.04020782223714742 -0.01762063375870977 0.1007734094414471 0.004520069511394997 -0.01173920438866298 -0.02218798745708181 -0.006778605312737395 -0.0242145064037066 -0.02646118678240964 -0.02595288666300971 
0.03664442772293206 -0.009843031504511233 0.06498894126131451 0.0004161627006424115 -0.012048507656086 -0.01454970401036502 -0.002615009819598858 -0.01523264871788363 -0.008700502430862851 -0.01339905216183402 
0.02571810532844545 -0.01915006991631435 0.06987612901498959 0.00366613536005763 -0.01192755329611671 -0.01531808123436411 0.003603685699027781 -0.01348654949279981 -0.0282558781250345 -0.01892219481785597 
0.05101025011027194 -0.018497971884907 0.01090097153496486 -0.007090965511394554 -0.01512029063110676 0.04577093893271812 -0.01990995426458139 -0.01390145717624163 -0.03548153963684667 -0.01233815449254214 
0.00377558154348965 0.01673272756080196 -0.02010890501760996 0.01814105438351236 -0.0353715614929957 0.01043800036577698 -0.02880385219127186 -0.007528713079085991 0.06580539280351559 -0.06564132627112282 
-0.06255631211443181 -0.01388862288781133 -0.07296766057147355 0.02419506961944984 -0.06880993859895183 -0.02508739826057229 -0.06772296912888813 -0.02982554501444433 0.1911759820925823 0.002159061926088326 
0.04983161446905612 0.02935517506600748 -0.02807815343992814 -0.03387413320063179 -0.04186240222808375 -0.02757908812035285 0.08082790422192294 -0.03137330806148081 -0.05930371184078864 0.08966678002719705 
0.03633671086223799 0.01758190742333623 0.01500669244900985 -0.02694367764073164 -0.03430227005946621 -0.03320908989695812 0.07625305969941122 -0.02260551646326433 -0.08386466712486844 0.05338767567000105 
0.0435067292412455 0.04283551967946633 -0.0208838048085259 -0.02561169930853324 0.009709630978423428 0.009655393226935517 0.03205512191111153 -0.03673577559281691 -0.0731404480824575 0.01154194524279757 
0.02533344804736887 0.0474149463560963 0.002257361670238088 -0.02917237771497805 0.01733529313238984 0.01547398573940043 0.01559926204637503 -0.01947317431960516 -0.08054884598868774 0.002390741509729908 
-0.01074472739083584 0.01295706718513123 -0.01224894550202019 -0.0101093261043663 0.01532710107912945 -0.0007866087221865059 0.01161226443513024 -0.01538284747016064 -0.06373279475127157 -0.05130820141448578 
-0.03059358502597965 0.03603801652422554 -0.01651168719698592 -0.0004125355582044236 -0.03858483041177162 -0.01940755263051634 -0.02090200930690076 -0.007125231418454696 -0.04111126957579523 0.01629505868084796 
-0.0234094525212619 -0.05653374143710557 -0.04858608563146569 -0.002813117620681395 -0.04053189014452423 -0.02856388150933067 -0.1165108595836491 0.01790816099202884 0.1010228708454705 0.04778112007793459 
0.01504628946551624 -0.01545133970059788 -0.04946917832424248 0.01274000325266378 0.004977230352464287 -0.0207833194458535 -0.05514180825977825 0.004307907859782695 0.03580816672560338 0.01377294273901685 
-0.003901592801787814 0.03335144284741321 0.04169911011168694 0.008217022683246171 -0.001236356927162272 -0.02289509809587944 0.003622729516412367 -0.01625974052891387 -0.003367907078286712 -0.02351904115306341 
-0.003014702600964809 0.0350782463523226 0.07078116528181796 0.01042850757956691 -0.01488647534235505 -0.02068853399731442 0.007675243322425813 -0.02241650184960118 -0.006369947271010079 -0.01426134328756877 
0.0235450216163391 0.01346996045902887 0.09377551377102863 0.002756469989788183 -0.04849478446044578 -0.02337628613727032 0.004476444827364683 -0.01860806356489993 -0.01058943947883275 -0.02092559780546925 
0.03391666733209767 -0.01735626864149982 0.04866411026636053 0.004055631582608075 -0.01778383410587969 -0.01805817909832491 -0.005660880820650713 -0.01701823340703655 -0.01082055865650623 -0.0168790931164857 
0.05003957055973281 -0.009320983695703054 0.05883205372465754 -0.008762033763901396 -0.0247384140700558 -0.02116526386523965 -0.005093297427249089 -0.01547906049988956 -0.01559929102437268 -0.02433586581058659 
0.03581245239089372 -0.01437231009833074 0.007483536983814286 0.001385499817551816 0.01536921843266133 0.00920849813551281 0.03198669427339052 0.0006898187201099302 -0.02097829751531011 -0.004795655694326733 
0.0103854229399515 -0.009461834895425719 -0.03036797761591227 0.01393808146172913 0.03646573944825796 0.0357589883712797 -0.01870741058514983 -0.0008205149568716734 -0.05798848446957782 0.01198659102825033 
-0.0188480544268517 -0.01231447966459975 0.0005326045210509427 -0.01532846992756462 0.01594290382982368 8.127574769732012e-05 -0.02372867185574777 -0.01023317006061533 -0.00834844463970447 0.01220949362531864 
-0.01119479823472477 -0.001988466037109059 0.001528763166093838 -0.01312225629631411 -0.002542477928624294 -0.003163935893168498 -0.0047695479807895 -0.01195798332794957 0.01407148198361571 0.006069360398291759 
0.01966918325831179 0.0004160523988502488 -0.03289841616747976 0.005912942645987907 0.01855222121719825 0.001616526153049984 -0.002196567233867663 0.005295044940750745 -0.04483441459679998 0.007774861815825123 
0.08489964489661529 -0.01983792005631441 -0.06050109330328211 0.04025075633595266 -0.1050282356739975 -0.04988332849460247 -0.03949623935580755 0.04440642242138875 -0.01777998277700554 -0.04159713961626416 
0.03355054681198918 0.02384446618126495 -0.03620603975117024 -0.02361797297480734 -0.01026022150604845 -0.02039795178983602 0.04636039958165141 0.002471218604250974 0.02627008404984306 -0.05346043774815543 
0.02322355083214951 0.01467105593558027 0.01153111556565193 -0.02247435772257699 0.00582939015782982 -0.0152005346328209 0.06033548727738821 -0.01313672149065115 0.009696163409127328 -0.02109715042927345 
0.01666308657272299 0.01506939694283553 0.05007638651306268 -0.01379076247953504 0.01411455096949545 -0.0179617685653652 0.05337727504352671 -0.0168698032856893 0.003882214036527414 -0.0402189950980942 
0.03443970376530644 -0.01079686886673036 0.01009120304960465 -0.009006429883855947 0.03701365890398477 -0.01837929442822166 0.0368782433938687 -0.0285426370237997 -0.02271346605016966 -0.02200313835978185 
0.005024903578626629 -0.002956848205577203 0.02866683000618403 -0.01309849569365537 0.03076236124211872 -0.01377668918292913 0.03633402316698133 -0.02403163211185956 -0.0120229463270081 -0.02193437127290496 
-0.004815433652753579 -0.004213148555824404 0.005618942811892442 -0.01268166403435719 0.0450262408623022 -0.005987126989012619 0.02008474016178138 -0.01029368950737385 -0.02442564981868882 -0.02723510822771355 
0.003974122343691609 -0.04640048870694344 -0.01634726520682733 -0.0328152152366536 0.05983043792917647 0.03379439300396149 -0.05160820683409256 -0.003856565343289584 -0.04709454304811963 0.01297657621264708 
-0.03571255483510088 -0.07127322137406682 -0.04076299776327361 -0.02895151489082055 0.02903284558402815 0.07944772299548022 -0.05573499059792957 -0.01951465485687797 -0.04679462991596872 -0.0004966875488163228 
0.02806291040144108 -0.04189819124580878 0.01078473671720512 -0.01767057286400675 0.0309781654761047 -0.01011432601425151 -0.01339146305527535 -0.009076380047780616 -0.02678479227756207 0.01794047663880978 
0.01893376454981873 -0.01200093348257737 0.02462880953018539 -0.01222174076717074 0.04362417605270168 -0.03522484302043684 -0.01656429672535551 -0.0286627329384082 -0.01133093963625928 0.02733748882286271 
-0.01557816234766959 0.01107615330323908 0.05681198888092384 -0.01548228874158299 0.02195196099106638 -0.03620314569261275 -0.01134499675520543 -0.02365894607051515 -0.01221280300026562 0.03357909466454286 
-0.009645284578424906 0.005098252234702215 0.02233848128516991 -0.01538543973743119 -0.005610348618028264 -0.02905312424861916 0.01450430993244353 -0.02277912635594569 -0.01700859911429668 0.04545884048888797 
-0.01903378961652426 -0.02710064858741718 -0.05234248414549492 -0.02160175437040392 0.01656019617415618 0.009584049519588817 0.03021357629309137 -0.003963098672773804 0.007667147604930174 0.02120718099638444 
-0.02730024071020505 -0.02517384957510215 -0.06631117456545785 -0.03597239048035237 -0.04732758176830165 0.07200152102256889 0.03324987243946056 -0.01418730764146026 0.01132800665839814 0.06072859838491952 
0.07346504649631101 -0.02320758259644657 -0.04156674286117588 0.02220630370518823 -0.006316598257634192 -0.02096867101535134 -0.02798727278543995 -0.009269976115738585 -0.03115581289060897 -0.003112090668937864 
0.03778016305279438 -0.004274575619733772 -0.04757367154941513 0.05496383073691283 -0.01269933661803383 -0.04935883028094364 -0.007645549546994984 -0.001414895444105161 -0.03132529772473342 -0.09578905800541521 
0.02586577221417551 0.02225768151815354 -0.0201979984762133 -0.02666520787166281 -0.02973422634289609 -0.01633969219909239 0.04273307179607598 -0.002600248051233152 0.02532088725526053 -0.005969182739124269 
0.02160373493943027 0.03286644281329514 0.008972816223967058 -0.03847019314299631 0.004515598185772638 -0.02096738959731611 0.08620767262617166 -0.001229722238856548 0.01794555018509025 -0.02092255198622134 
0.008645456593705114 0.009883300863818388 0.03357174860560799 -0.03884444075758538 0.007175033500350957 -0.0257990163436934 0.09409360443432035 -0.00134424627447566 -0.01369128255442419 -0.004993841263421299 
-0.01655141764687601 0.01331619699073803 0.04767531507510494 -0.02513197586843442 -0.008250084262511188 -0.01879275817681979 0.07935403394904057 -0.01456540716793104 -0.009394262299552135 -0.006593637474452354 
0.00615648107897949 -0.002453728001770445 0.03094946490825708 -0.01875130697619976 0.008408605550548053 -0.02482274895431415 0.05293044795955751 -0.004031916417538249 -0.007392078092465903 -0.02437478355064616 
-0.01620125071861891 0.008721261265617272 -0.01091738184732953 -0.02158835826397022 0.00114779877665506 -0.003934820802978302 0.01170218444847067 -0.003636317202699121 -0.02291060091429675 0.006713394328920937 
-0.06846398650814706 -0.03785931016707875 -0.07625366489550721 -0.0444414934693988 0.02628598596176335 0.0657299361194174 -0.07249760024551602 -0.02308793336428444 0.08969304145889687 0.01515380714340304 
-0.05823095706723013 -0.06468815972977245 -0.06890210724107754 -0.04217618717324976 0.001236334015228966 0.01722810969462323 -0.07759365018861174 -0.02906369974659157 0.100806189001722 0.03266121580131255 
-0.01968347290033305 -0.01787575937336615 -0.0003060576739613661 -0.02249225370534598 0.05316700667296201 -0.01107163133560243 -0.03844101688283965 -0.03624990238204572 0.001177345885633844 0.002519478635702131 
-0.02321677408562609 -0.003082501267898464 0.0216045222668675 -0.01269882909292793 0.03922604532471943 -0.01739423223738728 0.001908965614696018 -0.03989176740225883 -0.01419923653723127 -0.01885249661020551 
-0.01114857940974566 0.05821498964797461 0.03081372995942764 -0.01114332648327871 0.0204820968259701 -0.01672624308691915 0.009371141553784164 -0.02816177341302109 -0.02608443867656906 -0.01422020621329988 
-0.003791706362364897 0.002176779303516718 0.0333128864057584 -0.006107495226732641 -0.009412358913754143 -0.02022842237037988 0.01747065385565803 -0.0260415550730352 -0.03948817390250438 0.01413850481630338 
-0.02885102090390243 -0.004886409994906246 0.01588578300074792 -0.005841785262022331 -0.03605268142840051 0.01337614400511476 -0.001795215375426718 -0.03372281190376075 -0.0008255104420879854 0.03175948841900895 
-0.04419848647486366 0.02603235705498916 0.02280831849274494 -0.02155976785526844 -0.04759473602604126 0.07872452059736243 -0.009430626678750701 0.004307305439353155 -0.01001887938145933 0.0177959851059495 
0.06663005965784069 -0.05378056709243025 -0.02194197302663488 0.007033249761921629 -0.1344124339203788 0.0123034571590916 -0.07121568594522952 0.09461750451691427 -0.004651687831983616 -0.06502446925326065 
-0.01151456062621703 0.04598648410279754 0.01084204808907149 0.0002992753239206284 0.0206073701810691 -0.01865225958190093 -0.05045227432812659 0.00331835758698468 -0.01156796983172887 -0.0005959073343149954 
0.00812542401254778 0.01355152220852896 0.01572542166322869 -0.01171214888332172 -0.02091640046410108 -0.02583850263425568 -0.00876328427015669 0.01056037178307834 0.02865070696788485 0.008540974622438441 
-0.0257291938250582 0.01175301618275693 -0.02526626561258095 -0.006419401959167926 -0.01124312783328121 -0.02234407460521899 0.04877874450014373 0.03465931403122694 -0.04093234518028655 -0.003795351330801754 
-0.02807967369381258 -0.006762066726099661 -0.01990221144692395 0.0476034388096671 0.05487272832961793 0.03343957075578328 -0.02647810719182236 -0.02333017539773011 -0.0518601389481031 -0.003557668131301128 
0.05639476272591794 -0.004192185145731711 0.02530593201441526 -0.01803213566227217 -0.03148136089039089 0.008906860981903866 0.03311745098622183 -0.02524984419941863 -0.03662548480651883 0.005903555859711799 
0.01616916933475356 0.0001350770880243487 0.06156039754908669 -0.004652093795133119 -0.03034573720493106 -0.009268407900569344 0.02914644367916597 -0.02045837019223138 -0.01067180449255258 0.01268027947604306 
0.001638072518135648 0.001082232093506711 0.04477789788854983 -0.02036127769649095 -0.02546315595011253 0.02315757044906417 0.03672802861199181 -0.02259058594617106 -0.03800299711557587 -0.02671878108351725 
0.0185021011214736 0.008021812337394796 0.06802958075382132 0.001193086278198996 -0.05663946753986048 0.01170081236811383 0.008604688283978637 -0.02192506332215945 -0.01042083651316114 -0.0163428246998031 
0.008795725333204146 -0.0002108850732206204 0.03601832369149958 0.006666668657427254 -0.01280910833405796 -0.02354957538546628 0.03965326697671745 -0.02006745779542274 0.0007623211091057178 -0.01238480439703638 
0.00437668225670225 0.0172961025361743 -0.008641267307785971 0.01346333975614307 -0.01223151723068695 -0.02398979219409677 -0.02423787944596429 0.003628902258517329 -0.005340610263465473 0.01412482798813632 
0.003581480467631251 -0.05359709215003625 -0.04510166621901859 0.006347859376715828 0.02200806009186764 -0.02042056539785911 -0.04821138979567512 0.005613474688884726 0.04650780141463192 0.06816674888182413 
-0.03653064499192529 -0.08500774640326914 -0.06577373203507801 0.007938803044260105 -0.02745235745260114 -0.009627851155939976 -0.05197822031550133 -0.005590737662534574 0.08561199251282869 0.05987669318874177 
-0.009388412605089724 0.05240719986991068 -0.03463987941464084 -0.01492716865306982 0.00929438223460732 -0.004010930984949641 -0.02307128001524662 0.008087401404048983 -0.02689936197923178 -0.03659181248269051 
-0.004156535924803927 0.007537852150312984 0.02004444623875749 -0.0174944621651444 -0.05583301290657822 -0.01215085399767785 0.02345148952528846 0.0003759466562629585 -0.05132499528348491 -0.01416990054371301 
-0.003308229896226573 0.0668378171267849 -0.009734526691868722 -0.01751605063323158 0.004035612567530539 -0.01479961376739996 0.01068518276820277 -0.003045404114483267 -0.02445906850121908 -0.0358718201408025 
0.0322879819264853 0.0196810016372309 -0.001621522709033945 -0.02099797330547327 -0.00828277645513841 -0.02363576788174615 0.02232607175588652 -0.03339386297111299 -0.04270190864937853 0.01302437412959738 
0.04980507090933441 0.03526815244906872 -0.007026666562782048 -0.0162972749592669 -0.005006064216518716 -0.02974884410085784 0.01235030208028328 -0.04029817338613061 -0.06910704055231477 0.007385158214831913 
0.01020212876474124 0.1042128186866845 -0.003054887072233276 -0.01720222984135752 -0.0413991121619805 -0.02635481369914377 0.01937909533548283 -0.03990140823535367 -0.05690995952761807 0.05225098639186835 
-0.05825336087025081 -0.0116194257287222 -0.01875090173847408 0.04568706319406712 -0.08778670649248778 -0.03029283791751296 -0.03438245621598397 -0.03091724639521708 0.1073212131420909 0.0009450786219868708 
0.005684682130971545 -0.03073970056113239 -0.04458666854143007 0.001973401516847477 -0.05214219283102052 0.01283222986083627 -0.001774551318301905 -0.009304758618828696 0.06215499597871453 -0.008043655341564709 
0.03873447759517892 0.006852637314400515 -0.001804921633312016 -0.02076989659084123 0.0171139551485449 -0.001228005826216094 0.02275070355096693 -0.03035766470998656 0.002056552909289748 0.003786754526646896 
0.04114200175799041 -0.001704405868823917 0.04739248612355957 -0.02258824543235857 -0.002892550664486289 -0.006851537779065964 0.03218132851262373 -0.03205440801119086 -0.01258048159497209 -0.006360077233286557 
-0.01499859763947075 0.001926350118232481 0.0321277377346761 -0.02269823621304155 -0.01066214355551972 0.04141312747467826 0.03989971816075102 -0.03363548714145009 -0.01077160094285223 -0.02793746910330241 
0.006853668414690255 0.004400573106509409 0.04528437015785557 -0.01636153353419717 0.01266801236573853 0.02227812989992478 0.01861085301215165 -0.04104425418576736 -0.01465043184067283 -0.04067484421037742 
0.02826351667256387 -0.00930476925337642 0.04870205191950654 -0.009434732001203743 -0.01177421018949236 -0.01479139155425381 0.00741077498026602 -0.03478999341313325 -0.005538290309133384 -0.01863120138365541 
0.01807744528581648 -0.0212163709283668 0.02443377478623183 -0.004611826877121056 0.006362624572135473 -0.0227887622347879 0.02039458686258675 -0.01485396375085853 0.00808115049583958 0.0004673083416801289 
-0.002502680827367555 -0.02763140835523919 -0.06254785555880488 0.006154311427616132 0.04484598732028124 -0.01250289221521801 -0.01878061519578201 0.04555999591962798 -0.03283024021043351 0.03916607623424995 
-0.0275845964347386 -0.04176144472315684 -0.05271731864152594 0.01252754734207033 0.07997514052857506 0.01297996692884676 -0.03572478109623847 -0.01702440256435433 -0.04062261933195017 0.0130734729111889 
0.0006683568630398223 -0.0005144113859047185 0.008371636239126182 -0.006511626641186741 -0.01522205800309377 -0.02188698337422506 -0.004179766716548764 0.00557479984472119 -0.002107438388946035 0.007767861281347344 
0.04387537109690428 0.002046617241720996 -0.007695707414995514 -0.004063590962115613 -0.02853219336589919 -0.02198743558700354 0.007924078179657049 0.0005352681115952215 -0.01094230831914773 0.001648162814781497 
0.07274520679172583 0.0134012810558624 0.01823468925693753 -0.005022704021831608 -0.01492765999686602 -0.01885766054894213 0.0322725542997072 -0.02872163855160128 -0.003274093743973379 -0.007683071537965941 
0.06442008545998279 0.01905778511919686 -0.01140018643311368 -0.003557536284762065 -0.02739881997494202 -0.01990413099993584 0.01489457265628745 -0.03923124162375397 0.003416128140463978 0.01998171643373685 
0.07086725327265905 -0.01862429143743477 -0.008612926411515084 -0.01423943801772447 -0.02654383663450048 -0.02839596908430017 0.01760083406966306 -0.0356798225407518 -0.01926416048187813 0.07648466406361427 
0.02548899846084257 -0.04114726520784404 -0.04191543893400976 -0.0234195525633911 -0.03945539544887285 0.02374717202775669 0.0395790215986026 -0.02195482043315727 -0.04340532774562272 0.06439367879866252 
-0.02815527984304188 -0.03225644354477959 0.02024026591807875 0.03181851701447892 -0.02274906439154505 0.03930634109202404 -0.06452148800895013 -0.02762196555793154 -0.05698599758414046 0.017205307767141 
-0.01092876671472713 0.01587803061713029 -0.0006992339511064688 -0.01383957644577478 0.0266204765708081 -0.009657283537582004 -0.03895069196988749 -0.009849723392481654 -0.003073312140487926 -0.01613555381337456 
-0.02295115944335921 0.003210957431240085 0.01593038889219143 -0.005984028380586453 -0.00797943628648707 -0.003481542558103272 0.0100571666484364 -0.009088747109683243 0.02294104554752442 -0.01993287391327508 
-0.01055369009744296 0.002117775790332512 -0.0226420907089018 0.01693085912534887 0.01073769866925848 0.006007799589234023 0.01966389297141363 0.006422510008244973 -0.04109351460974021 -0.01305787976533929 
0.07365687907390307 -0.03187524242655427 -0.09329166115830025 0.02956026537943759 -0.06784095366450048 -0.04073300031028932 -0.05424926324297977 0.04420783551166876 0.007908584752971522 -0.008670096519440673 
-0.04561724810191534 0.03043513480276343 -0.001616866104215088 -0.03173074981874189 -0.01144023489794526 0.00242217546947572 0.02270387323178712 0.002073270036249159 -0.006880299745339786 0.01562244691977517 
-0.03438553597034052 0.01459135040787446 0.05042639170097767 -0.03637589485790808 -0.01391384520584582 -0.007970386493835718 0.027654243374427 -0.01842661436155727 -0.01706077397573232 0.01975980214553544 
-0.01688599511125414 0.01494100790068261 0.0307716598478956 -0.02488455001836692 0.01988709038198743 -0.002057227790364587 0.02597756810593851 -0.01793982796574325 -0.03784917580678091 0.02308421381742655 
-0.01026790261215765 0.03610075945341847 0.04529656223807342 -0.02122338854803121 0.02931760515912196 -0.009030738953434017 0.03273439678533013 -0.02296329976469094 -0.03844744206712379 0.0007818601783351286 
-0.04380896013456633 0.0001604263003243556 0.03311598276309198 -0.02302001839274978 0.06699031506916289 -0.01386586839215157 0.03063207032150879 -0.03213951647763302 -0.03757619768976042 -0.06451432755409012 
-0.02934745899746257 0.009915729669742312 0.003261442405462734 -0.03158158734852091 0.03843062804566724 -0.008689324046456878 -0.02766096430086969 -0.009242500420498803 -0.03277194818296626 0.01440091351494784 
-0.006681857242295035 -0.08577480572126989 -0.0472870492271318 -0.04929775956460004 -0.01963106254690931 0.01733526829812289 -0.08277878272772987 -0.0326057581222542 0.1143463692022245 0.07323104537790918 
-0.05063759339589572 -0.02255995027804874 -0.08951761997633496 -0.03801998048603494 -0.03903649272825978 0.07470099380723541 -0.05429531978104336 -0.03527229633680195 0.09274491115616992 -0.003553717175351074 
0.01321884203686993 0.004339264707786348 0.01865229031021077 -0.02526092419313773 0.008517169791018353 -0.006752219146264463 0.005420953327726597 0.008449201846605582 -0.0179847122409554 -0.03928320584161763 
-0.02403484458446922 0.03154491112544675 0.03386258448795074 -0.01992928049366144 -0.003584538964030519 -0.01268369943342694 0.02093052519456681 -0.002378870351196849 -0.001281985852633191 -0.03324577937264967 
-0.01977358649623815 0.02466345308874359 0.01619405243431548 -0.02540295961313783 0.01160493084837482 -0.009892238624779949 0.05253311083607242 0.005753624294205364 -0.009661942991415273 -0.01527041611970427 
-0.009818871788354321 0.01462697662200018 0.03400780553528765 -0.02451931161429322 0.00932441293231237 -0.01457294144799583 0.04231156888760861 -0.002098997073494472 -0.006250022871969544 -0.008424398808376914 
-0.000700391151631615 0.01004083953408811 0.03061747782491506 -0.03426187456549215 0.01047934382476895 -0.01519399948092893 0.06823640266094244 -0.004145747884506275 0.00383807914361375 0.007467297599585599 
-0.001238032661689803 0.0004475038212741273 -0.007141965394134103 -0.03650592613264309 0.03282836672526888 0.0122305008182026 0.03522555176733764 -0.007573969631450075 0.001986271815533573 -0.004481998802972524 
0.02408273685314941 -0.02925283445200357 -0.03526712268656859 0.1066048565858639 0.01346811051985374 -0.02467469490059128 -0.0942040167730694 -0.01778017148690153 -0.02489781997563154 -0.02563117755390912 
0.1036455942030383 -0.1007197867519584 -0.02870010335041169 0.01273682256764934 -0.009977545212016652 -0.008551779627721627 -0.0687621709840569 -0.02966270084722722 -0.0543193996457937 0.005142731743223288 
-0.01472541865025352 -0.02161823132990033 -0.03983823062683697 -0.05942674109054501 0.003915633274868549 0.009818840308536723 0.06652720852066013 -0.02523936374992579 -0.009514940382883101 0.1011071560647077 
-0.04163451975202005 -0.02005554458555023 0.007719302233285652 -0.0529953273077275 0.001737769989485693 0.004325955550071111 0.07196489821926409 -0.01347095487449201 -0.001135054166706616 0.02716783019479181 
-0.04460049337511063 0.0002033887043983291 0.04270283222102372 -0.04321888825787998 0.01458300395687151 -0.009839844502378136 0.06229542446098561 -0.01674430579620926 -0.003299247968821616 0.03679690504182258 
0.003696432023994339 -0.03784214362305671 0.01589625000181862 -0.03757733543226918 0.02366242438147928 0.009013304335315065 0.05486886385959563 -0.01337799546144328 0.002405571180646922 0.03662420769805828 
-0.001561716672734215 0.01988845050339503 0.03054335918740067 -0.03095900326707832 0.03195828163689737 -0.02655265431086547 0.04851294133807831 -0.01638980982433908 -0.009556991938376686 -0.02169631083890208 
0.05611630389760362 0.02676378665408692 0.02462184767730489 -0.02877498581456001 0.02518468299980845 0.004265198044038609 -0.006097921364325688 -0.01353415755017346 -0.02145897994577082 -0.07243289274429571 
0.004329298426919801 -0.06261726547374452 -0.04020013097260158 -0.04006427786585304 -0.01396181359907194 0.07116064532607595 -0.0357618972053498 -0.02986905873090464 -0.02573132191722373 0.002624830158115439 
-0.01831797658432771 -0.04394599038480339 -0.01291377825787769 -0.04369094352688638 0.0471354703263619 0.03266686912821009 -0.02278162761472882 -0.04135215180180519 -0.0376727192902003 0.05005840980166507 
0.01449213078193721 0.01081363038047784 0.047499603300588 -0.02604659045527038 0.0388983095487234 -0.02331585400550869 -0.01101668456773959 -0.0008407230312993279 -0.02326623582566482 -0.0563246327481708 
0.02595945801015329 0.03140961774176828 0.02140245813595573 -0.02392582726103796 0.01392178719871861 -0.02526960964181689 0.01222216897996676 -0.01400045577076249 -0.01049545104153002 -0.02803500385062627 
0.03682008507549802 0.02126289917439714 0.01169438182232144 -0.02444614881208717 0.03725756259159113 -0.01811901176405215 0.02472472303004153 -0.02356034028890206 -0.003096612608486116 -0.02444898928302773 
0.03188648516412822 0.004976135508199805 0.007091249982720312 -0.02438747655967461 0.02833569076554902 -0.0241312527405609 0.02826528892214689 -0.02099630753709686 -0.002432715907894728 -0.001471599174343494 
0.02680310571734584 0.02686174944339372 0.01137416265606968 -0.0316446369805116 0.02746612644997553 -0.01933326350429714 0.02198798692133993 -0.01734422658196025 0.001890000279597123 0.003676326773352041 
0.02651720942256095 0.01745617252973879 -0.003195343617321676 -0.03352898804084539 -0.005627705280082155 0.02044436869705222 0.01316618745083873 0.002942283715628857 0.006023285071906746 -0.03047549684933201 
0.1003541016731994 -0.05241695130428756 -0.05843233099608716 0.02764848334950584 -0.07813542217900959 -0.05969186301038975 -0.09957653015261719 0.06910832563496282 -0.0003560450700394988 -0.0140054974419402 
0.007734717052925774 -0.03649868068022243 -0.08513716215407588 0.02350279130504804 0.102386959133115 -0.001939713176131678 -0.03711355794182328 -0.02296902200727648 -0.04175379778889476 0.02619659991461731 
-0.02135156693001559 -0.02714312402221298 -0.03291365308940002 -0.0068093594333407 0.03309140389919417 0.007122471858599623 0.01471174739572569 0.004747948788902836 -0.01936827005949978 -0.01120495583156384 
0.006209484254116544 -0.02358697212246484 -0.07781956167995321 -0.02637260516634809 0.01121014193812051 0.01032634116862909 0.05284174807542769 0.02567606117180259 -0.05689952378726751 -0.02723091674756459 
-0.05724878284804161 -0.03304265375476163 0.06117981830525002 0.0115815419542076 0.02992554286905954 -0.0503906422104248 0.04514010406246177 0.003072622022348591 -0.06575861315772254 -0.008463028714981835 
-0.03838939121014433 -0.07101364238488432 -0.005719647441731123 0.04566690359344177 -0.01479961620900705 -0.01901314196634142 -0.01548065219523489 0.02357487232047912 0.002894512798756599 0.123389159223032 
-0.05933763657165556 0.002364564730599457 -0.01770856603019949 0.07379855081842231 0.03408276360498898 0.005481650067492775 0.01614535384695183 -0.02105363375923138 0.02542468121758022 -0.01102628352279939 
-0.1079770935360734 0.04619917895709164 -0.06058785498734886 0.05141268434248681 -0.02773690137262192 -0.03599028178634051 -0.002339717003263508 0.05679651349199671 0.1526819766529704 -0.02628811457923248 
-0.009653582921981317 -0.08003646871178098 0.03467909493543075 -0.03225279929394274 -0.03840547212738651 0.04181524552463787 -0.1093396612549648 0.007777201726645379 0.1679350048254776 -0.03789073357080049 
0.03578339753859516 -0.1614109890567262 0.07971177832108051 0.01456476515356054 -0.01901375047999802 -0.01605308112236393 0.02184682736235685 -0.03058573170499592 -0.03454223813274273 0.01405370419596922 
0.02422491494326531 0.06388491850516183 -0.07499019542126482 -0.01988352452598383 -0.02323856456829594 -0.01375631362350034 0.01185273181682229 -0.002608750383869508 -0.07130485320493229 0.0317120427579068 
-0.02642039805784226 0.03902936266315626 0.01922922517984156 0.01990121805365299 0.02831812372029198 -0.01015971642143348 0.05542238848512492 0.02756013339611236 -0.04430778927770432 -0.06998829973143594 
0.01950054044302845 -0.04929382553311749 -0.03358493423673785 0.02795226538073132 0.06152700853052284 -0.003569880439756227 -0.07186902379432947 -0.00732879951205802 -0.02503399637660905 0.008169275121174439 
0.002553044425922032 -0.03529604474972493 -0.01172106188885005 -0.001917418965685158 0.01486445256453265 0.006144062075209785 -0.02875619251660399 0.007931959712993476 0.0168388906912591 -0.01944569803460896 
0.02643281850767487 -0.02916157247644229 -0.0573489711714219 -0.02084947031548496 0.007825087523280231 0.01350564757669452 0.005402805504136215 0.02608730609430239 -0.04322511273614275 -0.02672143995719684 
-0.07409200575758187 0.1009032796922239 0.08846857538764941 0.08052497704455451 -0.09010097491102523 -0.05308910157554584 -0.0197073379364135 -0.04518321111421292 -0.002050949063204367 0.02275619797331914 
-0.03860224876876159 -0.03793876574025123 0.02364698703223425 0.02510360670396057 -0.07647056778014331 -0.0146986683005569 0.01712155153468197 0.01545007407158105 0.02640754267597593 -0.02326584943285169 
-0.09109314892493681 -0.06840461260298245 0.09935143797860185 0.07899258117051366 -0.0917542080847045 0.02992803891667806 -0.02001563742920531 0.02308922025100385 0.07574731148201695 -0.06497483046497268 
-0.1183083027518565 0.00290543294746232 0.03990780902706492 0.05316640605277578 -0.009589644065862565 -0.02015660046851708 0.02415680741754047 0.05060130273618359 0.004341889532130732 0.05739731180876292 
0.08624975703950563 -0.01117335200092271 0.006759532668426263 -0.005095607598259156 -0.05029873896909968 0.0461014293823958 -0.05911481364749793 0.03554804152373969 -0.1249770289070383 0.0816785807984475 
0.03517111530624864 -0.06192696337081999 -0.06241590278012216 -0.02924385709841614 -0.07581840682603622 -0.009423273975827224 -0.02911581081255817 -0.01909174282907396 0.1092926933144812 0.03903334700206929 
0.06982075518208482 -0.1009229550126684 -0.04324322209144095 -0.0168469531158536 0.05145388105855019 0.01816519845661172 -0.05010982585076394 0.0002391354763609213 0.07109693464245506 -0.01176312435724428 
-0.05236957399714691 -0.03664543001941362 0.06135160684345865 0.05286735568664179 0.09735593380406223 -0.05889396062236081 0.09654745193754657 -0.01818572504023394 -0.01745616273564164 -0.01963603025819635 
0.04547047263053237 -0.04962667570788511 -0.008191324672569368 -0.001165214282350686 0.01461623161983519 0.01076759859229368 -0.0571490112150838 -0.002330521770099768 -0.02385170448666829 0.00442791319587668 
0.02471931195026743 -0.0533911564774954 -0.00974692164805808 -0.02814422366183857 -0.02516194816644406 0.01825865073989237 -0.03550894473474637 0.01693920276301022 0.01887936693502766 0.0008978162518863219 
0.046650453877675 -0.05264893847190867 -0.02996488961720023 -0.04210390503025468 -0.02893907818488262 0.02336948119317402 -0.002081294890351598 0.03035247547833098 -0.04307998380317545 -0.02671649938379177 
-0.006653455368525612 -0.00469643479185719 0.001907258718166221 0.04191998780100361 -0.09236559690437846 -0.02244558394780188 0.008552423820702608 -0.01213981957240883 -0.002977350890648267 0.08972815218837522 
0.0163342434986328 0.05293548072121571 0.002247461641782449 0.02653267754746234 -0.04074703029043768 0.03356002936455587 -0.0237249438081168 -0.04094242924505944 0.01936053340916897 -0.02096298911464828 
-0.1104978057716754 -0.03072512525849656 0.09371327119167594 0.05423186003246577 0.006339250549057393 0.004460744266157349 -0.01501293189117099 -0.00743719172338925 0.06500466622593562 -0.06641695304971457 
-0.03664927091428276 -0.04589137076429205 -0.03083172064215835 0.05032799820338742 -0.002075917040455169 0.02792524577193189 -0.03471896076289303 0.006872031714037129 0.08061725742293493 0.07741786751776304 
0.06264414859114809 -0.008920873450887485 0.02266183104299665 -0.01306429692938785 -0.1001907738163596 -0.02475185948703901 -0.01169094065244242 0.03702147472138025 -0.1006260811859278 0.06105072794286917 
-0.01524420619145886 0.1288629943099029 -0.002131934093628712 -0.05011935768907498 -0.06611206442053942 0.01330678016805216 -0.06066163089992518 -0.03210029261286383 0.04203761790833056 -0.15970171075505 
0.01216572263912769 -0.1176140126189275 0.004499694490001393 0.01410502824815275 0.02859119510966528 -0.01423592718438833 0.008856296241099692 -0.06017560943951839 0.03940099561162767 0.004739580304605725 
-0.1006046813814819 -0.07635480961758337 -0.02390426478683738 0.0184876353965508 0.09229941430541334 -0.04848100962209589 0.08402485579454355 0.04614076490892335 0.04118062556270027 0.04572740035472437 
0.0541699539247795 0.009751487231570957 -0.004562004051580271 -0.005340582703133017 0.004613165586558646 0.02429985163958771 -0.0657639461890689 -0.0104762800143016 -0.03288953279056207 -0.01672528540606445 
0.04339324446746633 -0.0002019734156692024 -0.01523182124740522 -0.02925081944087324 -0.03065356627582284 0.03548143688628847 -0.05507603341857741 0.01059205118108192 0.005576770089714634 -0.0161799739630716 
0.04273164949799288 0.002572100303110452 -0.03563094927197636 -0.03439418143737991 -0.03123261550557865 0.0363419616302393 -0.0125781847151963 0.02574293517348843 -0.04056854396664294 -0.04391367433143772 
0.0141167082414618 0.02992678030402618 -0.01089997335382747 -0.01333232874745935 -0.09634673180396267 0.03284175867383258 -0.01078991500356251 -0.0566560874173279 -0.0618419001264928 -0.001546769367589141 
0.1043608917536637 0.06310652309093413 -0.03782800854936538 0.01140086159683217 -0.02515213194101803 0.02363072980718585 -0.07726930531397321 -0.02285535330073691 -0.008487524069854913 0.004230950933675241 
0.01864048173595194 -0.09855754698777337 0.08235649121117673 0.04445261391245251 -0.1194125495255637 0.006077068165493112 0.03662593120066043 0.006051915663380305 0.001379794905171891 0.005271902295743797 
0.01147344352923499 -0.03559969930549756 -0.01150410549515811 0.02527456694824489 -0.01900345513550575 -0.009862674647318581 0.04946572535790349 0.02418117769802599 -0.001593134111212399 0.05230305155567399 
-0.05878989936229644 -0.05254900898296072 0.01679590295528638 0.005371541150180971 0.001327030127344734 -0.009145260354268221 0.01563626652624654 0.03917992931185501 -0.0234816652746312 0.05876772580520067 
-0.09878860151411831 0.1132609420364579 0.0498089540646152 -0.02849702301901025 -0.02660106253582249 -0.008536916509104679 0.01824141723083752 -0.0469865125869741 0.03024203385472557 -0.08592276412844466 
-0.01678207686385013 -0.1417048444209088 0.01363977599589714 -0.002683887051838943 0.02768860285577096 -0.01586629373382878 -0.0456704040031612 -0.007020870537635584 0.01681695669897066 0.03926212083252807 
0.04815109630483977 -0.08425648418115599 -0.01074947780368763 -0.06400989799402158 0.001510793282553174 0.0094438774731972 -0.006091155198076667 -0.02775987874526529 0.0236643850439869 0.04096551669420441 
-0.01376929956672725 0.01302088613132963 0.01320817650150131 0.015295161974706 0.02406019630595578 0.01782982548199902 -0.03487687634580496 -0.0006687136143890027 -0.02039166862296434 -0.01380449559806132 
-0.001675010719702224 0.009552885720658228 0.0006723477467253953 -0.008620678070652083 -0.01320509131221559 0.02554467946274111 -0.01273795370313763 0.01908097713986065 0.01677351256931594 -0.023562604531941 
-0.01305929877081739 0.01326485256971722 -0.0009512309540748034 -0.005453005277998728 -0.01844156901544093 0.02575387018598922 0.009679262067578569 0.03497493154574847 -0.0412573750613766 -0.04605802674129661 
0.03068608806204129 -0.0576884836149659 -0.06189541609792003 -0.02583880532841273 -0.09071833056453242 0.007808181644300347 0.02291210886599495 0.01514746875974451 0.02771470797592103 0.02432685849655965 
0.05859420302159138 0.0341459665410356 0.03203599199959999 -0.02647344541828758 -0.07720180424308866 0.02900584222775364 -0.06092518152070982 0.004342506794125181 -0.08378115323564235 0.07351380507389517 
0.04675476608698678 -0.05546057619269225 0.1255308837127985 -0.0009051729593579456 -0.06321538584690931 0.01402144477451674 -0.01648393906632428 -0.05739091680754097 -0.0413907600940125 0.01928291842230134 
0.03653808842555933 -0.0233751879787968 0.05493054470102255 0.03659134235974199 -0.01548414800766276 -0.03556140296029407 -0.03962475825176275 0.00724974367397817 0.02199334013307803 -0.01873607676561177 
0.0120794918355704 -0.06325163090459154 -0.03321212275725952 0.03274967498894247 0.1015960683233196 -0.01713317140797357 0.0266824882532867 0.02816425729547722 -0.01931622142812087 -0.07130629812548905 
-0.05958178356742613 0.0547617982625063 -0.08332841555359061 -0.04332455798907611 -0.064005185423174 0.0006361247791492045 -0.07016352621896001 -0.02818482141609663 0.03803947820828963 0.0435621454972148 
-0.02906640385913299 0.001532969493751422 0.02773935229703094 -0.006534519037514018 0.0484482198970528 0.0007604638519838968 0.001537467133919929 -0.07143154583321711 0.04217043007966607 -0.02003668552201248 
0.01283474838865329 -0.07113373613566813 -0.02985113260069645 0.007567767141882861 0.0002195486408637846 0.01026050442515992 0.04312485899277508 0.01131038852937101 0.01656217120908898 -0.01849856175907652 
0.02458703407162147 0.01073842765352704 0.003216846611483226 0.02120525423115435 0.05965792123887916 0.004736787299439581 -0.02984662487973055 -0.01297911681935515 -0.03937887385023613 -0.02249082625661926 
0.03382816793288294 0.01436245222677606 0.02000247114219945 0.004201776388715936 0.008010844114723373 0.01163364049560118 -0.02059672418117064 0.005581507031978602 0.009440493336533948 -0.0594762734747467 
0.04500743651894006 0.0063128864982449 0.006136821075666839 0.008088298437022575 -0.003243119931276763 0.02113875827600662 -0.004266495890814338 0.02140536514869951 -0.04850982124951436 -0.08046331361771011 
0.03757929935565055 -0.0836789341701383 -0.04972047453090117 0.1089908692691534 0.03998439444808503 -0.03764501385654453 0.05001056924299913 -0.06142006732436831 0.003260743500029738 -0.03832895524258086 
-0.04961542605561503 -0.06529547370492575 -0.00521409177484048 -0.0481222789124939 -0.007256836680203309 0.03460226778794569 0.06702327607268564 -0.01195986491140758 -0.02661975015657468 0.12530306892083 
-0.02733518799573812 0.0007489233341730267 0.1144540155392139 -0.04525346496061581 -0.01806747756468532 0.005143131856527766 -0.01697188605106251 -0.02394891408245952 -0.07535255340262602 0.05953004530744112 
-0.006893069154981272 0.103040246356215 0.01139045334674579 0.04700913666290307 -0.1400765245321875 0.06111032134812482 -0.02951059749693711 -0.02800975567448491 0.010779596162972 -0.05861587312805196 
-0.03434483354229497 -0.006092856632951065 -0.0458649821786408 0.02916953801106948 0.05812164380585771 -0.00751572483384642 -0.009836888110558507 0.01686384069733346 0.03733190171702398 -0.09506542943547072 
-0.04767797761954202 -0.05676754041224606 -0.05240436362898798 -0.06220732418405026 0.05346661870535017 0.0107741156621226 0.007447307412433221 -0.04142882833735326 0.00780860825464461 0.02897419459990013 
-0.02743586337856157 -0.02682691310982229 -0.06488741319216282 -0.07654499709452896 0.0272979277949215 -0.03404410281302472 -0.009113393318828837 -0.07918357151254228 0.1275400227070353 0.0561475805569895 
-0.04228519300005523 -0.006332810612370015 0.06261413505578931 -0.0198213783967137 -0.03342135175414104 0.03672584967659986 0.05161614773508928 0.06886285260235769 -0.03118866392362481 -0.06550876442717378 
-0.001460692245700865 0.02365688647773377 -0.01052400491470761 0.00223406787784917 0.03405761860703597 0.0105494413010677 -0.03681621643699544 -0.01021485438264563 -0.003057954520212034 0.007961244037872345 
-0.003981756700075892 0.01410300050072205 0.03758989649337326 -0.00291565179975226 -0.02030935650704362 0.01552392255229791 -0.0199211607179583 0.00224582112061581 0.03826984585696815 -0.02648943943184392 
0.03531379689711979 0.00855133068692936 -0.0001749038219720937 0.004111708402950606 -0.02502339324007783 0.0213804205858691 0.01177701145629249 0.01609742282252261 -0.01837953908720695 -0.04281173756231256 
-0.03334746430326815 -0.04691548651405886 -0.03778288353906591 0.05377721743165873 -0.03211692454495331 -0.001849862921742193 0.1238946514030608 -0.02353212276235511 0.01624517568693326 -0.01183450910216532 
-0.03590774484125995 -0.04591892908303055 0.00258741693489741 -0.0210866459796414 0.07419807308726872 0.02839608724897796 0.07920802737872878 0.008763144919446443 0.02027803502345835 -0.04727329281550143 
-0.04393113609956655 -0.0806527769033744 0.01747893322240164 -0.006524276100980525 -0.02695135439950153 0.01995927936847762 0.08779079529887225 -0.03392292239584673 -0.01262710963353396 0.05104970870786427 
-0.02806268703834713 0.05564565328529855 0.003955976760137856 -0.02058433311850987 0.06135346765897 -0.02146835414495514 -0.03577870932390394 -0.04357056638992124 0.05503807681484213 -0.002780744482781024 
-0.03355095953579521 -0.02697805512089101 0.02783546605779477 0.04889970333558365 0.05518384020256706 -0.00997192379589033 -0.005808770260069984 -0.0124951324779629 -0.01198684767145975 -0.05716572645921345 
-0.05820155884339642 -0.08391216279565836 0.01310753820944751 -0.05546280782646702 0.09512151045916613 -0.02092201661464909 -0.05588462992976985 -0.008710916198930692 0.08624943121266997 0.01722165944268602 
0.02973223911960575 -0.08359069043406471 -0.02935606608404506 -0.06673173494739018 0.03777635425806267 -0.02057496686860443 0.006894765852729655 -0.06560849762522507 0.03739276606434894 -0.007781433663907785 
-0.1003081239908159 0.09039784754706001 -0.04854380862926323 0.06293664475559806 -0.06758038937145253 0.07601116570641628 0.007844122300058983 -0.006290249312608049 -0.07481434414840051 -0.06490626809059229 
0.03766968429377682 -0.0001798941246374272 -0.02857352074362518 -0.02905016795341083 0.03281872486714404 2.060471640477759e-05 -0.04777292363853605 -0.008735993201189979 -0.01377551718954518 -0.001283096327389397 
0.0196237679984533 -0.0101619811036154 0.02092384576769301 -0.03151820355910201 0.0008480009143851285 0.001187597275317928 -0.04001984173282885 -0.009606649424841978 0.01977451129592551 -0.03122554873974601 
0.04848706678738128 -0.0101145868323249 -0.01797010365632051 -0.01790639548264288 0.009320385967170329 -0.001374277322795663 -0.01136187675431978 0.007776083465372477 -0.03824297029325335 -0.03830111528853736 
0.009253951490163576 -0.0141267256300186 0.01174621627504482 -0.01518923409660934 0.02619174841269112 -0.01947730643349503 0.05978563525211856 0.02601517492256616 0.01957860263885649 -0.03192405120975662 
0.08986319659331216 -0.102892540838507 -0.03582049990520295 -0.03466291189114576 0.08634999532688444 0.01920385436797564 0.104845115102234 -0.06406829831994219 -0.006117381459198124 -0.07662596060538859 
-0.03153287485161379 -0.06138898740887678 0.02828132665481246 -0.0343390442276979 0.05005235985846014 0.04213772218334151 0.007458430500944282 -0.02350732892666258 0.04687434078022996 -0.08843054872651668 
-0.04055107037338156 0.03735393790931627 -0.04697286319661328 -0.02398737849279645 -0.0005760134199202528 0.04929675222879885 0.02728825553551379 0.01020659579438375 0.0161428096394542 0.09199869677462066 
-0.1099870977940087 0.0230588257446909 -0.03217349110480028 0.08092511264704368 -0.07671659425873251 0.02007532983668704 0.02705107851594139 -0.03749794535595884 -0.01802755900522544 -0.05341417270303859 
-0.02085189515586958 -0.04485502076331985 0.0171630286880751 -0.05244547903025688 -0.04128396666565484 -0.01723112051909535 0.03706186873316304 0.04875250594356748 0.07562427875154588 -0.07928829888844456 
0.0596627110212937 -0.09232181563529138 -0.04923293979598883 -0.06400917637830697 0.02352840775845192 0.001232502754908586 -0.05681392331423273 -0.03526668545561306 0.05743144014345695 0.03135894918750209 
-0.1492383774286469 -0.01319165714000431 0.037058543879679 0.06666238477509162 0.02700142392457214 -0.04916401327290195 0.03630231284994441 0.03916418177921926 0.01017540493945459 -0.01459884227439196 
0.01325569944832126 -0.0332596793632053 -0.0473317878176469 -0.0185315896162412 0.01365355213310953 0.005962532417878177 -0.04642140165037723 -0.02065595189449224 -0.01631282952085616 0.03431365379732564 
-0.006140901264016794 -0.0177102189909139 -0.004550864683015065 -0.01740734327000288 -0.0210670065383229 -0.004670972032271687 -0.03684021210744945 -0.01869463257881335 0.02232881920387639 0.01091236624269264 
0.03813272331345915 0.004029313984633383 -0.04390977022736248 -0.007374556186007308 -0.009408509132574799 -0.006232422653545171 -0.03431891304170354 0.006062172031123751 -0.03918566431461567 0.005476658927779493 
-0.01600642230701271 0.05085484818570059 -0.00138796475827605 -0.0131914685259077 -0.0962671510696253 0.01277912972499387 0.06950531362544729 0.07242585212718515 0.03873462798616965 -0.06869629302267315 
-0.05169077730654421 0.004849947461382884 0.04847786424445864 -0.06124534587983656 0.03881103352828472 0.03467097152613818 0.1201155250986728 0.03225844377861484 -0.03128559953250516 -0.04113992344212681 
0.0677981297410632 -0.09958765439257153 -0.01050179592461565 -0.03255440401223963 0.07713376899489793 -0.002581607860288804 -0.08532609424973381 -0.03653443008914987 -0.02194087294050589 -0.04668762021604485 
0.02084755055412021 -0.05566262172384887 -0.01344803132132499 -0.06178368476388259 0.05422436128365781 -0.006143088317651583 0.004337525668873065 -0.01100534045494848 0.07694764715497615 0.07971756351470435 
-0.07258493312247508 -0.08075061016348939 -0.02436960769630075 0.02979737054834059 0.006714104378705035 0.03396509798279269 0.001436460156134348 -0.002616608150876408 0.05274273883209555 -0.05414966267477758 
-0.08326214003493848 -0.07660097286118167 -0.01936650815614048 -0.0251543096677997 0.006214542462318926 0.0008127562051438402 0.008223053308313926 0.01020615590605188 0.1376323977018986 -0.002894832595383295 
-0.0202064039812435 0.02628381963745063 -0.01805950376276969 -0.03697355119531917 0.03603763710529886 -0.0189184842105441 0.02506432154064267 -0.06920311564324977 0.04571879480219394 0.0262957521253603 
-0.03855720655666002 -0.1357298387405365 0.01004748764255055 0.1004344910011081 -0.04647335804582179 -0.04411693688093875 0.0222886363174063 0.02561409692150768 -0.02512666859790227 0.02308275378868526 
0.004341740854727373 -0.01932037629095764 -0.06815735481369824 -0.009728276447972911 0.05411450452184133 0.005496464598777785 -0.02852001097167293 -0.06177117206012146 -0.01191545165837649 0.03659597537652456 
-0.01251155774845482 0.02046308787553174 -0.03413065200276418 -0.01239264502023678 0.02044386726526683 -0.002145070333171002 -0.02146302775492758 -0.04372634703216403 0.01585083281733453 -0.0009381375508886527 
0.03480056572933765 0.04441575921643058 -0.07060826945305945 0.002457415635188215 0.03161407856249308 -0.006530474601178555 -0.02928811750265812 -0.01275087416218286 -0.03995855061032181 -0.0008367241329937878 
0.0395751639630051 -0.008766280632048028 0.02582684239803278 -0.02188372898669855 -0.09139334505882341 0.001881527777138703 -0.01133146262429592 0.05806256385163709 0.09418063160423711 -0.01848389135342004 
0.07128116095537854 -0.05919302338616667 0.03031078249187367 -0.04401796751285533 0.01318736240050444 -0.005049947602941117 0.0008912931925256277 -0.01913183582907163 -0.03368506000681601 -0.008837829286529791 
0.08064400207706783 -0.05877971972623845 -0.004440786148627204 -0.06913228013276061 0.0299699856242093 -0.004153328331036696 0.02232818026696291 -0.002721858577444812 -0.05502513947051621 0.103089126789401 
-0.0189006244295587 -0.01061004942121815 -0.1356800814185074 -0.03199375673652265 -0.002111906521716934 0.0527914949597029 0.01609869939537972 0.03551260271685133 -0.03668168116207583 -0.0231751359275446 
0.0377728903026281 -0.08090358951287978 -0.07453537123620807 -0.01600455865849886 -0.01394898590784022 -0.01952872984192398 0.1024479045847255 0.05941450952340564 -0.01945285766572161 0.0172226819885252 
-0.06497109431073855 -0.1083785733167976 -0.07213703821394532 -0.02937325964816205 0.0178136354020905 -0.02146482186504014 0.1186406072085783 -0.02594826707323768 0.1487159264288205 0.1150728101079996 
-0.04028821974019323 -0.06801712270816211 -0.002684806320408364 -0.04312955799102036 -0.02919235533976213 -0.07023707760381874 -0.03865148772380193 -0.01475928500349105 0.109637537096817 0.109187395429988 
-0.08928975992527073 -0.007198047459386723 0.05907843034298092 0.1235878526941107 0.01246543262114152 0.001299459754405177 -0.1023159775610513 -0.001163338842546052 -0.06861763137392968 -0.04800788357322935 
-0.01568325526221903 -0.01072763434532843 -0.03645116466927109 0.02452952568646408 0.05784978671371337 0.00144814583263667 -0.05272300887962902 -0.02256486283942948 -0.03937892410225697 0.004025384953417764 
-0.03275160894927013 -0.01692539254508941 0.002627219907782952 -0.002902737404364424 -0.01570985366904383 0.003023722807692954 0.02397401974907212 0.0003776236609333007 -0.01177841872303686 -0.01457042447970358 
-0.00605949984583373 -0.0141761806008416 -0.04600828388701519 -0.01772714719873242 -0.0196939744056385 0.005735021626542177 0.07501569047637295 0.01815933614057415 -0.04836335360496069 -0.0425927371316023 
-0.08094955238211468 0.06736406275491032 -0.002770653387476984 0.02750072175975985 0.02902796779184807 -0.00915227987827321 0.03801220671170307 0.003694203549416498 -0.09967046966647373 0.02765233139870191 
0.04115473135295118 -0.103578207230287 0.05380289905699479 0.05299593992951143 -0.07548689292582211 0.006716158524970121 -0.0404691429014493 -0.04096682439854375 -0.01137235775535314 0.07838440357275635 
0.008746945077457016 -0.08700960293579579 0.03972658564967147 0.04670983209740578 -0.03594870212205827 -0.008266197822210641 0.03835431083303296 0.01963540896914702 0.01701756350276444 -0.02576733051405772 
-0.04645494293167717 0.01258911405143101 0.01676352084692508 0.0439552288985813 -0.07180210531954451 0.009559834252285153 -0.08862713328002089 0.04002244655181338 0.1526599695572941 -0.06688068370360449 
-0.0150521159551271 0.07033847038734135 -0.02172107750907517 -0.09032717250653313 -0.006577353485611646 0.03545948028734655 -0.1207302901612749 -0.0119480371749352 0.1161327712433249 -0.02704228707701136 
-0.02730537186524312 -0.147128959268201 0.001024426580458972 0.06009976676286147 0.04804424337255651 0.01163428513130784 0.07435787203562765 0.02269413145303159 -0.1135915978513507 0.1107506654038773 
0.01588389869276411 -0.0919912066171588 0.08697841649625876 0.01556876259838674 0.01531582143871621 -0.03872486697434967 0.06068941282837417 -0.00419878426901489 -0.1119126933712302 0.08053757078557526 
-0.01102035724315332 -0.09342986886573025 0.008619416187080444 0.001285918142051528 0.02564817147408212 0.02849628963767405 0.002531923087014918 0.02434075771769465 -0.04324110587652562 0.01989593660675321 
0.02629690601271345 -0.01471213412864641 0.02116955370604166 -0.00145453022973638 0.009101759784612763 -0.01971896936617257 -0.05725779357896833 0.005137256224332879 -0.05275458494657773 0.01122563435928293 
0.01885924839969238 -0.03306350768148976 0.03295902064990195 -0.02602474060397154 -0.04613798768224702 -0.0156804725215004 -0.03257338909309405 0.009908751063067715 0.01878925683479265 0.0179333657282119 
0.007968565595600743 -0.04595133826758942 -0.01537049558173053 -0.03107750434736765 -0.02206016775549174 -0.008583319727710714 0.02086217849833863 0.02439966539696186 -0.0121683219403618 0.0009452175141636274 
-0.001231316387259255 0.1276724984540787 -0.07231406757803968 0.002084774674226557 -0.03544294310938315 -0.04093148291123518 -0.02316779998973083 -0.04658596042457171 -0.0577888047162167 0.05842770218664287 
0.08069904237733111 0.04497203561249748 -0.00883922862728093 -0.009499700177009645 0.03674105064953508 0.07150706702278756 -0.05532550586862184 -0.04108422127146996 0.07978764964023864 -0.09280655130397861 
0.01101624475739759 0.0110817002374206 0.03283789097441313 0.03869271659894118 0.02132494210661069 -0.004947784778472564 -0.04012088376637112 0.0180737024767071 0.05225722611988318 -0.06210448685618292 
-0.03347708587358383 0.07390078943654682 0.08446842525776732 0.02175304012151109 -0.06253056497164558 0.005572797824287596 0.01369988476182838 0.0406509257659678 0.02975573348721432 -0.06684023911337635 
0.06488107961529481 0.04974186332385262 -0.07536659605772247 -0.03428700887380132 -0.0298879039990663 -0.02516154146469916 0.03244173987991246 0.03762267936481314 -0.07380577653453303 0.08117912812151273 
0.03480449480045227 0.02804199681476732 0.02287412607010409 0.04013056445079526 -0.0859848461073074 -0.02054342332314748 -0.08342683676529841 0.0188230908066982 -0.007384326017536523 0.08273751693996843 
-0.003643217415185763 -0.01658390407797394 0.03597549008577045 0.01267942111014224 0.007099233431075918 0.001534659407179171 0.02595121139795699 -0.05779971155468396 -0.007838281152180044 -0.03147100138010003 
-0.06981396465224635 -0.05998016035193855 0.04950797925480684 0.03846154238135201 0.009429907097617818 -0.03399485594481318 -0.0159330380372418 0.003586208524454027 0.01269704990260813 -0.06371645655965172 
0.03141318362971265 0.013256868332208 0.03117982549157808 -0.013292017577752 -0.02656380762585311 -0.02178023587032881 -0.04043483548229138 0.02792717896238574 -0.0657721270784894 -0.003586580803351182 
0.03549851597290021 -0.00975705130879502 0.02796550748516567 -0.03500215554644146 -0.06216550067189169 -0.006784577537310724 -0.02910308287131935 0.02851457068240752 0.006539336204500003 0.0125403132984737 
-0.02910201982838794 -0.01685515234812388 0.01873709484734862 -0.02531765486090679 -0.02920508299169228 0.0088144525902607 -0.0001156409063070863 0.04879043188810003 -0.01034906509559378 -0.008611656114982319 
0.09565493918074915 0.04851951391247329 -0.04433969513827924 -0.03353192206165129 -0.1358805014835611 -0.07545377410420967 -0.002928165920130411 -0.05126939649694548 -0.07017649932660652 0.1182993884881947 
-0.005220706022060755 0.08399004095149315 -0.006911519505817189 -0.0114826645602087 -0.07517604015335728 -0.04839904305104385 -0.004533309814648194 -0.03140757641396631 -0.02168026298737694 -0.06545253483914421 
0.06797713194186869 0.007914505045596897 -0.02200407747622654 0.003420338907014258 -0.05233868085789643 7.935004938438879e-05 0.001254108173339353 0.05192991615127406 0.01771332319803964 -0.06695658514514491 
0.0655220804552482 -0.008499725885136446 0.1412146551416023 -0.01368142122059795 -0.07032096079740299 0.02253802053182987 -0.01817721657584065 -0.01146563193969071 -0.0463762787242682 -0.1105049473475293 
-0.01898384602509031 -0.02201993526950523 -0.1282962150362449 -0.0005576749458466369 -0.02131213546516326 0.01138200701074476 0.01106429076162087 -0.02696878216616905 -0.03441303014848143 0.1197320091389501 
0.06539387174103695 0.04330884818625565 -0.1088708587378343 -0.01366187080027588 0.02717243171674451 -0.01918682761141651 -0.03754331249051323 0.02377706407210261 -0.03325618106138784 0.05483412872940974 
-0.07417632574166537 0.08666944679614841 0.04902073662006673 0.006504907731188407 -0.05852577667695506 -0.03312411575383732 0.02856503837382983 -0.02097618525542251 0.03442129490561505 -0.01139591135933596 
0.01646458022932282 0.04560020199058426 0.06462131025940147 -0.003159618801987483 0.02324370349874097 0.02571120252092691 0.0840245299995391 0.02421469888989712 0.001217151509607653 -0.174449902697299 
-0.02018701021844653 0.01469290092543827 0.03288808021504153 -0.02106468606579875 -0.04798772054694503 -0.008571370909103643 -0.009945302824631018 0.03249729426183023 -0.07367992167896444 0.008218998856541626 
0.05395813418487005 -0.01803612374376455 -0.03566776323164225 -0.03724360453520756 -0.04985183731759328 0.01141555332404922 -0.01721025227648823 0.0304281746469223 -0.005108945767551298 0.01809346313720113 
-0.04300862180213616 -0.02461190849061788 -0.01159570962255715 -0.01590766692690188 -0.006325434402604386 0.02787728241744024 0.008891941150019737 0.05254823653156125 -0.04830091318548543 -0.01488128970333759 
0.03354704059437812 0.05443081019470366 -0.007971344693603478 -0.04335518157413014 -0.04391171740331161 -0.01405861909226084 -0.0477347338221237 -0.03971453198948584 -0.02612658471978178 0.00911665431696428 
-0.1378099597141562 0.02834597539249775 -0.00707021609209761 -0.004920308839659756 -0.04069925941463758 0.01942630992156702 -0.02982278413856249 -0.009483691552223375 -0.06550760757655205 0.0733826976404662 
0.07715739320810973 0.006306910239132919 0.04773193805732972 -0.02100701306044293 -0.06082677090543909 -0.05730692505483189 -0.02925554678101886 0.02196650817353507 -0.02764866619743057 -0.04370627698923134 
0.09999025555297468 -0.08081663327935548 0.08356261645935523 0.009137135838160341 -0.07236160818514688 -0.01188427553271203 -0.04437831127857761 -0.03957105162604852 -0.001006755015509632 -0.0278638328015344 
-0.02321602409346371 0.06700644294990589 -0.1039375603082424 0.01276834646750884 -0.02112149175201758 -0.01341771380048061 0.1131338180728964 -0.05438898642660417 0.01105301085970413 0.002759812554321065 
-0.06008278810997847 0.02539230336486805 -0.1473487847227339 -0.0125934980916369 0.06334815302088606 0.01063707025321228 -0.1037795697732339 0.0001215397252793228 0.004142303338322465 -0.01485303318821897 
-0.03078432178596096 0.04367081950482127 0.03769079988416899 0.03035919029528647 0.003209936733729199 -0.07960323331547382 0.007670503835371718 -0.01413237661110149 0.0384649846244404 0.03828664792295203 
0.0867622592910257 0.0002647411464182711 0.03657781299499556 -0.01185721626174248 -0.009437792723203787 -0.01057417050151495 -0.008358587783543356 0.005700821650602091 -0.05391244317462869 -0.0663628378528279 
-0.08004105397857814 -0.009497956103940688 0.1110041370961494 0.006059257965370891 -0.0152748568854351 0.002102346236399738 -0.0389258507539964 0.0247693196739303 -0.06650395218432786 -0.00191273815718265 
0.03439500664706831 -0.03067370865837902 -0.03743098069613878 0.0005573236575726469 -0.02194450497661547 0.01070064337018851 -0.05269360954666847 0.01743276782933368 0.002263060084607673 0.02928061693112184 
-0.06081368125246633 -0.03397432266891438 -0.04053064682856293 0.02654857786399917 0.008787878745166976 0.03255395801212416 -0.04345397128346789 0.03889429369639874 -0.05159774190862792 0.008623301645092047 
0.103098388727395 -0.05343374679356481 -0.02009635528851272 0.02549269575329666 0.002870024384954599 0.01326963091863177 0.03679318565047387 -0.07720694512156467 0.02442197539904033 -0.02714289685417568 
-0.01159498832154787 -0.04226467106125361 -0.048752381600966 -0.03235253774020806 0.01591315863030352 -0.02430640706336043 0.0189943691499568 0.0004175755149889158 -0.05388960885024687 0.07078681930104525 
0.04933709680208557 0.06863419537532248 0.001727327132948454 -0.01092451111965656 0.06400551612191026 -0.0775067431063881 -0.007322983445113698 -0.004830562082425777 -0.04298145387326507 -0.08891687525987049 
0.0104305173241851 0.01941070210775096 0.009922882113135596 -0.01596836165697242 0.01089811606026749 0.05374296681242534 -0.08695762525971659 -0.03217192111697508 -0.01169724635205239 -0.08326974927558176 
-0.01999279365191291 -0.0460932764222402 0.01780141436272524 0.02714757510409063 -0.0230908489021296 -0.03788508127732857 0.06044057567734573 -0.03947052605063166 0.001859664099073851 -0.0476796785688467 
-0.1054043413035816 -0.05394494047080275 -0.09538424748874665 -0.05075874993572994 0.05938819075597991 -0.03442754670979675 -0.004982735225326562 -0.06129808578174924 -0.04120325258495765 0.06829464162842733 
-0.04164470232471602 0.1541091262882579 0.0154738115607652 0.009970231470927448 -0.09900978737658483 -0.0553623694057219 -0.05545630647401945 0.04079448074547581 0.006023122287014691 -0.07910121468214065 
-0.004389224405958912 -0.02185170314604134 0.02101670404563565 -0.02834202344969318 -0.1026603573843505 0.06898980672145145 -0.04234247554088409 0.0149415474167006 -0.06915554751523276 -0.01455274094534038 
-0.03100912701421665 -0.01227487743020277 0.07159451648014288 -0.0230414520321612 0.01361749589444825 -0.0155190868826171 -0.01954044349102019 0.01231168603161845 -0.04955180531072498 -0.002237839150662581 
0.04893682498730971 -0.02329103800604878 -0.03008490483626012 -0.0230625221403339 0.001344983382803165 -0.02066914089710058 -0.02345795063364928 -0.002954031416747248 -0.001960211314326713 0.03702275326197423 
0.02250449376060652 -0.02337257347943541 -0.04307689520196011 0.001385002080058763 0.02390723076594148 -0.005210785241055406 -0.02798229639672954 0.01162069931762063 -0.04625764954046396 0.03826873967062212 
0.03459864247052465 -0.02925843638467537 0.037013983055603 0.0756651284444845 0.0306319167199249 -0.1120881590243189 0.004846467014895293 -0.08220902294598313 0.02188559806952846 -0.0392587799679387 
-0.02697154989444707 0.0159806209085009 -0.1183922926323068 -0.05828748170477263 0.1076248416749906 -0.03777821086561099 0.09133385373173288 0.03684518761406615 -0.01440004833320294 -0.006659520706679361 
0.04123596294560766 -0.01587367576996146 0.02730936274968032 -0.05304471408716428 0.02456052631901109 -0.08010672264593141 -0.06029224815565631 -0.008683362840182418 0.01741012709693445 0.095027084958916 
0.02860941598969451 -0.00525831639280037 -0.002252860146580468 -0.01073182214954347 0.04365770805036236 0.1302725949426674 -0.03135936204889492 -0.1090744511161073 -0.05130472424005668 -0.04540901463727118 
0.01124395368749777 0.009386004366487692 -0.01318533108440088 0.04638406348593967 -0.01441736178175038 -0.0773653956129441 -0.007430447342557472 -0.05190185712468144 -0.01421977047411776 0.06017246632803899 
-0.04639167266198913 0.1101460896762425 -0.01919356999509342 -0.09565444701977859 0.02188058340141638 -0.08498255348096853 0.08737426694357792 -0.003259608825356879 0.03628221448576963 -0.02367004194922351 
-0.06833135163629131 0.01068025432904667 0.01108347770866068 -0.06619742308016174 -0.02134466106373827 -0.09984070707971544 -0.01925006482079215 0.01223654911350689 0.02499084297261581 0.04740665619236509 
-0.05039671528083627 -0.09332963641521472 0.0700774372400156 0.01854152997155262 -0.1483547906458563 0.1628674900049401 -0.09143826533091198 -0.0572328782953399 -0.05166131497928594 -0.08085820197873982 
-0.003929631872621127 -0.007061782516687118 0.04703099883097718 -0.01685873432021175 0.03854739797709836 0.005113401189548865 -0.05238155487167788 0.004395320530417614 -0.0647770127623704 -0.01216483230943168 
0.05538468553222894 -0.01743972038167486 -0.01517264560208786 -0.01389097537127427 0.0106158061868436 0.006186646080840685 -0.04649230158902622 -0.0117022879726338 -0.03096655283825477 0.02498312189864876 
0.07843932601122491 -0.02063185287073602 -0.03994904373888707 0.006000316843056432 0.01750047749998806 0.02143089458372054 -0.05420780041414705 0.006068447385892838 -0.07715035163418366 0.03730217433766804 
0.103045659665765 0.03518264295542373 -0.06986293126012899 0.04491999721746186 0.08952334480767631 -0.05204839255827184 0.01076875853719737 -0.1151276532836253 0.0731666838375587 -0.1201076712429166 
0.02615201378816286 0.001896185820986341 0.03112223390310249 -0.01033654073894817 0.09821277366444255 -0.07102085465706656 -0.05938424735294971 0.003203649747879578 0.001806920402331155 -0.06832309986054474 
-0.1291809050557186 -0.02830511826777914 0.01540680485144976 -0.007710603845323289 0.08334802261638778 -0.05150581151883765 -0.01443527047021419 -0.004594043143773231 0.02163798323119047 0.06348151574761127 
-0.09602879967345405 -0.02525423373344615 -0.03123669564442233 -0.0173095057621907 -0.01857581375646215 0.1215972336598739 0.1235279171146484 -0.07418306174733572 0.02387836122482749 -0.06451535345755922 
0.07612513774391368 0.004824164758554021 0.03563248835741503 0.04379776606416038 -0.01218043010180666 -0.09608447536288517 -0.05267313566374908 -0.04260765919215797 -0.0338744767979863 -0.01731424581332086 
-0.1137555197565652 0.01169529421234272 -0.04202369330356687 -0.04312300460619371 -0.007958843388344395 0.01785424035104364 -0.000218642838854435 0.08065910921221349 0.02503452578416026 -0.0528960136206558 
-0.05228803008978204 0.003041068710613914 0.03103438848309039 -0.02731024320652013 -0.05658392999507152 -0.08360523714915845 -0.1110909820987168 -0.02126111665342134 0.0374051153649084 0.06733517951781787 
-0.1060312367874759 0.003907908449848562 -0.02042383334345241 0.01296117630749754 -0.1158893807732145 0.1693045938625288 0.02776650978898237 -0.05623682792832961 -0.02601105670428242 -0.03973418951768211 
-0.01107511255722334 0.0004875708193744718 0.0425889017157768 -0.02725818498222295 -0.01884935419913451 -0.01897131303510375 -0.02125560033977959 0.03101771552645909 -0.03147056513525346 -0.01143217413615944 
0.01807543665030485 0.0006834146057112546 0.009122492007456224 -0.02165015549090168 -0.01799992628195117 -0.01621505171316857 0.006822828081854733 0.01720866097860409 -0.01495820522646476 0.009484577957995469 
0.05432481407098846 -0.0004252359773923927 -0.03685666964165168 0.002832377758891186 -0.004570964863356618 -0.009142365716704287 0.01117917487601006 0.02776160232172793 -0.05983293792943997 0.02612664686967135 
0.1464939697727367 0.001065713909371927 -0.05861536882241123 -0.001407865443885125 0.09119397578639325 -0.07805084371168231 0.007382927533854413 -0.02588456004640581 0.02116642241857409 -0.07200952235295212 
-0.01680526228733572 -0.05792168037670153 0.01452732252476294 0.007544113107062372 0.07669724115339129 0.08091029876592748 -0.0862427305193738 0.02654503835504187 -0.05388933060584564 -0.1837457078423102 
-0.027195269156379 -0.05197624883380669 0.03112046812629723 -0.03852175390072661 -0.02350478396633043 0.03595103666113342 -0.1677421173608503 0.003063554190695752 -0.02406230096274221 0.01208989072235304 
-0.1001338951825929 0.07365866864154952 0.008737620166570039 0.04588755576719668 0.0005342312307799579 0.001005182499300811 0.03198811959300016 -0.08512095041092463 -0.007950489892748597 -0.006273367760117387 
0.08165346310718444 0.0536230364865744 0.00247429367901067 -0.0204979349083003 -0.006735089121625316 -0.01865823313253437 -0.02821253113683788 -0.02389674730026233 0.01229539467932701 -0.003560927842344512 
-0.06751622953190964 -0.03298960882158451 -0.008091920663569967 -0.05272895240458363 -0.0821405004724919 0.08175161190103868 -0.06037336273770104 0.04383842534820538 -0.01057889259557349 -0.03017220487843347 
-0.1286067123096288 0.004336357599147799 0.01164198930031692 0.009933571701284657 0.00351341791557673 0.03541991101811356 -0.01573317811733237 -0.07614655548775173 -0.02771269558004445 -0.01169376533842825 
-0.1446689172935375 0.04983299261461039 -0.05804980928996509 -0.004259141851962838 0.006399646159407857 -0.007180156102949681 -0.01949145163709581 0.02419319484362477 0.02369484727391047 -0.01974342316109073 
-0.05270402269940876 -0.04755850291103653 0.0292272902942807 -0.01068856768923888 -0.02402074243903425 -0.009920792134038727 0.01253950646989485 -0.01443246644418368 0.01975437110618139 0.03211485944757932 
-0.05312885187757498 -0.01691109442965841 0.01028574471696106 -0.003220279852193125 -0.002403650908854297 -0.009441129271064337 0.04777188186717665 -0.02488713847469738 0.02114654098327268 0.02652144574343677 
0.005089518852982736 -0.01906070580545228 -0.04690916403412631 0.01655304210524304 0.04770029197498384 -0.006692516219411989 0.04628455621597893 -0.01387633579185034 -0.03727178522495081 0.03713158333187866 
0.06967475342267851 0.1097926344978251 0.008280288626896422 -0.0657539868026283 -0.007043487808234175 0.00704575044224997 -0.01410422461910124 -0.007638386157470214 0.008691884014762017 -0.1679096206754737 
0.01148799213541894 -0.0282619966264849 0.001790584441076824 -0.04505439749603726 -0.02081510206921953 0.05820597807825124 0.04723196870409684 0.02115032927050482 -0.02315860060482658 -0.087464358509417 
0.01254141865007869 -0.05889451154863402 -0.06407134383921817 -0.05648219389354125 0.08919274474325838 0.08336573897194795 -0.0009837267871241628 -0.01880128934163474 -0.02239558848249537 -0.06033260464143864 
-0.1311888151454145 -0.01805393183179377 -0.03391108800229575 -0.01518886265078955 -0.07097209057148633 0.04571721844095544 -0.01115978388012544 -0.01874671143620914 -0.03727712129319978 0.07741765381591201 
-0.06234404514169447 0.04858880564637638 0.00581070825856617 -0.007801432642982821 -0.03596945615123456 -0.04617299487018921 -0.06530036823945255 0.04302384235969456 0.03803233219994238 -0.0547865326872531 
-0.01104462481707665 -0.01171208961778438 -0.03512387043935625 -0.05923787523769628 0.01805717377232648 0.03772223560775664 0.02618571868330222 -0.0142999204330268 0.03918927961283733 -0.0304202518711305 
-0.07980753982399807 -0.04759528032907145 0.08769771055629795 -0.04526839102616466 0.04121941228177668 0.003490077386928869 0.08142162204187037 -0.07150939777385239 0.01059665604896488 0.02499577330456532 
-0.05339720322104508 0.07080912018252018 -0.01210286786461938 0.06641428431438244 -0.08811956114636249 -0.02858527204810458 -0.08077117794834975 0.05993563950376823 -0.07021654726108119 -0.006193326343330496 
-0.07670045422620464 -0.03173034928588552 -0.03954392254570705 -0.01956505454846399 -0.0118453432553081 0.01138661385918106 0.04145862420789824 -0.01453914972889052 0.02932677454058452 0.03272609010334931 
-0.09616811482702137 0.02178835469050695 0.008802963328904727 -0.01482863560902142 -0.01850086723085404 -0.001558774565839407 0.04659654006253328 -0.01685390295060464 0.02468956830020273 0.007663408305927456 
-0.04041293800397384 0.03369738539235975 -0.01947099435412884 0.007327604861201637 0.0421034706482668 -0.006502075212455557 0.02295939750450086 -0.006673081962931556 -0.04436893550485659 0.01203107195908095 
-0.03426059317636861 0.05955958179878496 -0.01834634830665407 0.00399825976841474 -0.09139344971749747 -0.001284286653271301 0.04157904561578352 0.08386227851242935 0.01988654438842345 -0.0656387324539095 
0.07831530257515333 -0.06429086457621576 -0.0006867263729327739 -0.03312556956465038 -0.05218528932954563 -0.02664574967144474 0.05997960904899729 -0.04549416898724148 0.0793552737023247 0.01564937215855171 
0.08507110810566011 -0.07398322721717784 -0.05355929885741517 -0.05037050603569843 0.02526556726368405 0.03211251640067307 0.04254274634473099 -0.0310215115289183 0.02610993368423464 -0.03629889321445848 
-0.06634703256890949 -0.1288943166282672 -0.07304970057014097 -0.02156592271227942 -0.02551826682995636 -0.02112348781841751 -0.00925091424213248 0.0803561424001015 0.01441775768068843 0.05080446520349598 
0.01665504725277502 -0.01001445491557985 -0.005291299052191516 0.003015830160010695 -0.07113754922387033 0.003946638902832044 0.01543406553555404 0.04614923494408354 0.02351365585179793 -0.07814267571110078 
-0.0002759729715636762 -0.002369365818855442 0.07148820088225434 -0.02060741591703299 -0.03892283146587559 -0.01214189523119069 0.07064820776410513 -0.03724003107642754 0.01042970546860392 -0.03554572591109959 
-0.0327171171891725 -0.05480241591547386 0.06248840656810092 -0.02909631092213332 0.04253909691834684 0.001358727135961855 0.1093164089832206 -0.04760680718298161 0.09352434808760084 -0.03845199014369115 
-0.01805794853650197 -0.03620085351926098 0.02311790019382749 0.04298788265436612 -0.0900323033573107 0.01422365817431816 -0.05247065668525352 -0.03622239627928184 -0.06060518181120329 0.007948368168811859 
0.01078707977113561 0.02821504826614394 -0.00375875020868923 0.03081298439197514 0.01040799747112673 -0.003714032008156109 -0.08723400074835484 -0.01776690876803689 -0.02310041627620378 0.01173176025453182 
-0.01400162683438834 0.01334520729301997 0.05232745908523961 0.007651473584952224 -0.07267227081101507 0.001386170813364016 -0.01086613686444726 0.004157856410050125 0.003017565202563628 -0.009220879765828352 
-0.0008041273866189506 0.01171987954103253 -0.0003282053001748471 -0.002326792200999616 -0.0725053546384562 0.01022615357505773 0.05450012371414603 0.03135905837555793 -0.05086750357541878 -0.04256267326106188 
0.05936155297542003 0.03853266852866302 -0.01309770028852944 0.0721267585640494 0.06309976412729443 -0.06964032292384202 -0.005696436326565739 -0.02564193967036716 -0.06152964531094356 0.07472715633856804 
-0.03023801499361857 -0.03504768984414263 -0.01708337091134332 0.0585298977017471 0.1408676307591169 -0.0001859249827987224 -0.08288039706534329 -0.03736290644600593 -0.01544535663557774 0.02563803122594622 
-0.09105546531908899 -0.05815452996689189 -0.001718567200074714 0.03136404084962299 0.1167832232834273 -0.02222544365686079 0.07756378929018377 -0.02621463281971606 -0.06859047908724264 0.003259258545311049 
-0.04635444757797608 0.08445407733596931 -0.04303918283929053 0.0033595574397675 -0.07834499401351677 0.01996840559970866 0.0876629772887738 0.008290506673771625 0.09981969047303772 -0.02314816436910364 
0.07245728082711965 0.08994007616910704 -0.04300796827622579 -0.0413846245603042 -0.1449801595167151 -0.03392522634755902 -0.07677437757823723 -0.03593128417445701 0.1480950177656994 -0.04887358566340973 
-0.04258052791176323 -0.1051574714336907 0.0402658766324599 0.02148259929458505 0.1006816342883501 0.005437918583673904 -0.07365347410774994 -0.03515011660707613 -0.133519095682793 0.03168891732068503 
0.03062931291995011 -0.1166784510624915 0.01938801633223503 0.02065783439308278 0.03712784232038392 -0.05117556305171983 0.0653456314944014 0.005753127821515578 -0.1472025227790258 0.007388378396299662 
-0.01789321985678454 0.03444313296105612 0.02499786111496394 -0.02108124808831517 0.06211818116374185 0.1097082879973783 -0.07050464415101865 -0.01561839134822888 -0.06311592281062503 0.02114137697534979 
-0.004950306102821977 0.06092653256273366 0.00661112439271149 0.02063661756913942 0.01615272939213246 -0.02099586421345775 -0.09176633870207243 -0.008677712466962858 -0.05250590984272769 0.02574926969557554 
0.009919013380654349 0.008529223326765435 0.03968520589058902 -0.0007630790363061095 -0.05066823764069336 -0.02629365562982213 -0.06108522058889267 -0.009528564944436593 0.01783094104929241 0.04778172425371031 
-0.07363454420406597 0.01246449120318988 0.01770572951242064 0.006767370797643365 -0.04869209670744751 -0.01611892322146591 -0.006737581484171542 0.0196909847620046 -0.01164608828015177 0.04966105728770721 
0.02670194079014975 0.08063303311409777 0.004297251972824507 0.02810928912358711 -0.08970941058064465 -0.001182790191598641 -0.01018221585513891 -0.04581679566635689 -0.03379985732136522 0.02294638306861582 
-0.03058441228389401 0.05657364762641364 -0.02406238558379412 0.03184814870642302 0.1313964506165929 0.06077075258222477 -0.1031704370341805 -0.01383202363666472 -0.002449995120162331 -0.05498595513026304 
0.03926278543580331 0.01774931007471846 -0.02535641928742164 0.002181367464507308 0.1840659994195017 -0.0517261406725153 -0.02671983167354817 -0.05116063462753311 -0.02320026195513544 -0.06080800786591794 
0.04327858947899899 0.01672090984046594 -0.101285738958016 0.01173991962537583 0.05220098171670127 -0.02848752662402067 0.04406355220205728 -0.007904718661842593 -0.06794497121688302 0.03787232693352843 
0.01758127619719044 0.005687487758581361 0.01933816620857845 -0.05254221815933117 -0.157198579529144 -0.02999379785369139 -0.02056241678163233 -0.008986268262934921 0.005090428715384661 0.04733675396305562 
-0.1389756440818219 0.06531659843634056 -0.006263620956656129 -0.0326932941842959 0.1308057388315107 0.04316919137930347 -0.08973847630308665 0.02623220331440312 -0.056703348679589 -0.06755234506220278 
-0.03768557763318583 -0.002706637423995646 0.05840446315698657 0.01519864880104179 -0.01071809009568758 -0.04471407215180267 0.135838991902029 -0.03297240791987614 -0.007900598050118593 -0.04377770018279992 
0.1145344133421151 0.004308485052766891 -0.04926368348927623 0.02303516298209319 -0.001966964303091856 -0.05427593943349921 -0.05564985957990555 -0.07115583652220414 -0.01774700875870899 0.04261209523733265 
-0.02783358702364009 0.07299279093755588 0.01234325213100326 -0.004582408659778902 0.003355985881536473 -0.03168876974594793 -0.05526044275620649 0.004719309986428987 -0.03152160118327764 0.02932813483055503 
0.01128142769115822 0.0140421705184967 0.05752169270685575 -0.01836313518036206 -0.05284684354576536 -0.05072554716673556 -0.0207215571133832 0.001339882249499896 0.01053194958930743 0.05489942125766086 
-0.1141858675307237 0.02922787979006936 0.04207712055666536 0.00230106238643162 -0.03737303957173415 -0.0418640527428587 0.04831356710786764 0.02683536778852328 -0.01129644939843071 0.0563474952289064 
0.04196733390994796 0.01081952546501956 0.03784032271761142 0.02695420032229119 -0.1394390495083249 -0.04307176216770269 -0.00631571894345616 -0.03562683998897111 -0.03183233241348669 0.001590031111714635 
0.06982452828369329 0.07918521842976864 -0.0855754786022308 -0.008401146955283944 0.05965044312804677 0.05337647510512099 -0.08250914560268344 -0.01239921931809858 -0.07051838560911058 -0.07457497673776287 
0.04500921322209989 -0.04917586113501778 -0.04162831152664571 -0.03516736446876335 0.1477964580123448 -0.0006162201411114012 -0.05178489688366389 -0.008376290052226726 -0.0401811407667895 -0.06785771621915181 
0.04063579483738579 -0.03201366023895824 0.02916635022268031 0.0230615641305485 -0.05101455331944288 -0.006511596355296291 0.01511830450567667 -0.06575912254008912 0.006217931783327787 -0.002961202830503881 
0.04168552525614302 0.01755670801047744 -0.05970493679397099 -0.02431820443868713 -0.0490169189519946 0.00347476271491935 0.1151955031170657 -0.03706417323364337 0.0828118112495326 0.05174851388185413 
0.03338915465797072 0.02370465120462095 -0.1530596267232978 -0.04719896895076524 0.1876113219819018 -0.01385126329041949 -0.04604811928377356 0.01458798778249393 -0.04402079718625485 -0.08232501014346497 
-0.001688762918601069 0.0471101191029179 -0.002371028699512878 0.01084825442198602 0.04788989780468524 -0.05800258729287331 -0.08991773487694919 0.03194418552397589 -0.05810950202072972 -0.05612342040981484 
0.01780551201942009 -0.1601666860595763 0.02540492528251988 0.02368585326711337 -0.07223609597289782 -0.06336139518533088 0.02421729400484558 -0.05836423943045016 -0.0003087675379941932 0.04759529399976442 
-0.07177219133718969 0.06765510173365528 0.005833499253351227 0.00776330539550444 0.01985838280766944 -0.008951422575752955 -0.02434617023705239 0.001549902539012096 0.004336479429122317 0.01447117771829986 
0.005808675209560295 -0.01663849935201555 0.02910953865800979 0.007415962198853104 -0.0150478434823256 -0.03662934040149124 -0.03353800494263927 -0.004785588745655068 0.02840062037821463 0.04106008527699286 
-0.1112012827859317 0.008901375730405512 0.008788032376545183 0.03759124227654797 0.003366116968910388 -0.03012391017352417 0.03951461994251564 0.03759938402529475 -0.03417155580843736 0.03398500997354618 
0.1194510774239731 -0.1206781708524375 0.003564875740014128 0.01784799576274599 -0.03449693077909314 -0.02246953731360263 0.04973593425726941 -0.08724304138095508 0.03798749839481699 0.03770432226171846 
0.01629487200964768 -0.0002346503974977183 0.03372886105901485 -0.03238505429920491 0.05440105425492051 0.009756556657332686 -0.01391986702328245 0.03779969308204867 -0.06314113306804366 -0.04820999762690636 
0.01277033007721508 -0.05825956678043668 0.02096923889518544 -0.03759417806695105 -0.006073833343111091 -0.04132459399954228 -0.01941618752522319 0.04125564551832807 0.03766472476561313 0.002741997482325328 
-0.00389672018747655 -0.07642879416502314 -0.02279282274377816 -0.005934910306142276 -0.07390860775933682 0.02383881058288764 0.006639926079074149 -0.07357286461958268 -0.02617336448378344 -0.03662229500636372 
0.05982273562371609 -0.01975113194660287 -0.01660830490176171 0.01259383084096305 -0.03946453450413274 -0.03888558390505326 0.0289035952745103 -0.0827874998936166 0.01301728103879238 -0.05929615906345282 
0.002724443519799279 0.006099471820610968 -0.08065799805965221 -0.02770107073152539 0.04368735647533487 -0.08783175241649817 -0.03385656836446439 -0.01100412339023103 0.01860940211523607 -0.003821678600879775 
0.009932929046821443 -0.04593168416358469 0.02314338216463985 -0.03228744020703134 0.1095204513939862 -0.06491874151201397 -0.0999159585024455 -0.0163409146104639 -0.05984360459276151 -0.03211649143153623 
0.09009622299505424 -0.07768779904334779 0.03339309683228773 -0.0002122036591117543 -0.1479971343051723 -0.01917184916537836 0.05504333322875136 -0.07374299734210918 0.02241079382455551 0.05410122757732667 
-0.1193401365880212 0.03469200911509034 0.05644903089941981 -0.005558673880224873 0.008785677687471556 -0.01058114909700909 -0.01958289525897615 -0.003373306504516562 0.008425787101661614 -0.03937969133937345 
-0.003707123380115088 -0.01096816880477291 0.002829428504344855 0.0009302943600238734 -0.02208306472818762 -0.03194451945478582 -0.02374363730481456 -0.01433692685961598 0.001488823230820219 0.00415648910809127 
-0.08777898086609884 0.02075212992700205 -0.01268884118342284 0.03751039410525583 0.001555296799374215 -0.01758685274392421 0.0004314228432620218 0.02742371011117577 -0.08051627295763485 0.001019914841831697 
-0.01648932726035764 0.01404722728350441 -0.01602174203163973 0.05094716232632608 0.008448136582851254 0.01758927708942457 0.02725587443491195 -0.08663061622290914 0.03770023305672902 0.04252355135872173 
-0.009789448558122665 -0.03867851515151084 -0.02189461679436338 -0.04702530848899928 0.05531030817696599 -0.05598580661934754 0.03863890596957072 0.01963309664647169 -0.06094795384754443 -0.02802268720214882 
0.0426881102156623 -0.003955895126757073 0.02989203516597648 -0.03120914317667439 -0.001867969610421145 -0.0874376406208431 -0.1094099879535905 0.03988337145776451 0.0002375213552924692 0.03501506333150427 
0.03701341630043663 -0.05279609734204168 -0.04630114030069765 0.02592978023813011 -0.06482684088513002 0.03162942912144229 0.01830921180258777 -0.04906971579481469 0.01173217938606622 -0.09295448113227675 
0.045763324852325 -0.02452097335247792 -0.04452334765018003 0.03776528071862003 -0.04375383805626736 -0.01884682893250963 0.0461175130343848 -0.07826038746371049 -0.04603920640784642 -0.03612331171000193 
0.02499195142117168 -0.04264966626049916 0.02178570125773616 -0.0360920634620554 0.0525150899935114 -0.04628179662412157 0.01230135879988787 -0.007802988446916788 -0.05897405618816833 -0.1058143630576371 
0.04548611982388463 -0.06681907243796095 -0.02563559851015611 -0.0797731898851855 0.08104051686892631 -0.03532325710045343 0.05022303778433875 -0.02995644906291896 -0.03625581298628024 -0.005774110370869474 
0.1078302691842906 -0.004420193804513328 -0.08146861458687533 -0.00935162949117352 -0.05756376909410247 0.05188970447066905 -0.110337196018676 -0.09603498708068657 0.1009010736517976 0.02866587911228757 
-0.05173477817379173 0.009081839607078165 0.0266716796111035 -0.02854036304411858 0.03198961737687625 -0.04575012776332888 -0.01320340892006933 0.002603723126579378 -0.007987960507206836 -0.02730971981843034 
0.03837212832040548 -0.01431921711534656 -0.007458642697095947 -0.01654805469059676 0.01052435890700006 -0.0578714504985672 -0.01614820564287413 -0.008994044672904621 -0.0294879301668929 0.01436478521597836 
-0.01595130752866843 -0.003242548046015269 -0.03342662524389885 0.02061306918534644 0.03271757878158351 -0.03347324229951092 -0.02007502457865425 0.02382786031459624 -0.0965930932377118 0.01116908641082095 
-0.04558457871937059 -0.0009937958132717028 -0.02396416952287226 0.02978121090038799 -0.01324511809579005 -0.04521345673195826 0.08427964032227531 -0.1033778334442084 -0.02408157186323228 -0.01039458493162493 
0.03405751444902365 -0.01246257170752669 0.01211837397435449 -0.09565832131370097 -0.07436750030367846 -0.03559133533519795 -0.0134202782202039 0.01708579838691103 -0.04946926859353023 0.02930531196545395 
0.02268269815659497 -0.09118442070518025 0.04864532817445422 -0.08840013488608532 0.03786529422665629 -0.02027729255076429 -0.03776377463782105 0.001690994055297984 -0.07129420692224363 -0.005670892780267467 
0.0550623934117956 -0.01343496117560494 -0.06965063951914817 0.002432774275262493 -0.007163624706452381 0.07248117052907069 0.00797451982047119 -0.09415037359514165 0.01750340856277198 0.01711584735529258 
-0.008543663728829864 0.02361784572081009 -0.05692335655472482 0.03606628656400979 0.07672718126391917 -0.05380242486568148 0.07567941729762044 -0.08609500378343606 0.0140734883948979 0.01915428596858638 
0.06566478885473173 -0.05917853095232324 0.04617003661925049 -0.08441659945966365 -0.004926064022344375 -0.05405518091685839 -0.01088627879725634 0.02123382612894605 -0.1111744114611902 0.03736555962634964 
0.02018958349905105 -0.01248816802539247 0.03891455280090321 -0.09794813144922619 -0.04707607342063184 -0.03078057760305275 -0.0129038194619867 0.03242956487167617 0.07338278451728736 -0.0697995313603625 
-0.01708579199551903 0.1056128594922775 -0.1110942530371457 0.02670036365039461 0.07026359765531347 0.08954218971761969 -0.01751150300922637 -0.07813205800423108 -0.03380065891157462 -0.1353414940283495 
0.001847818609147449 0.004249607058799181 0.01752112404810312 -0.008082253613195605 0.04090611951929286 -0.02499008898904642 -0.06189166991306227 0.008304079502994851 -0.02844573819226354 -0.0489636824395256 
0.04643804513255782 -0.003772156734512982 -0.02819621973000037 0.005480232534016981 0.0309834858687866 -0.02764131450162704 -0.03474185040860996 0.001444706063874874 -0.02114377065083425 -0.008208517295119544 
0.06260943785759054 -0.01245355895005844 -0.0611454042470676 0.03270939981905324 0.03399206739885854 -0.009629255915017022 -0.04967046869651382 0.02604327047012989 -0.07319964987758941 0.01273363247216901 
-0.1515939593298152 0.0004803186047805348 -0.05845417745059257 0.1021788298327926 0.07877462562922445 -0.05979679163968802 0.06701347949629047 -0.1024233129647951 -0.06889298708797402 -0.003267505877902343 
0.04488468686271831 -0.03660284928334945 0.09101753511530261 -0.1159670965803831 0.07010000254794552 -0.02915120748307155 -0.06496285254819445 -0.006196094145076558 -0.0233234071602295 -0.003675031614644904 
0.0498215819802605 0.02710985155548461 0.04287201762189138 -0.09015492672113347 -0.09404288302229849 -0.03572679184400885 -0.1124131068303297 0.0196615138416675 0.009920175186503202 -0.03826257492583275 
-0.0190113257580616 -0.01535310346398055 -0.082792282640252 -0.0390996063501995 0.01590614572949914 0.05117898673819384 -0.04567967313171928 -0.05668031092510192 0.06723577245974821 0.02454646403670409 
-0.09194506507098837 -0.01762702839472972 -0.11885458984058 -0.002379964847506273 -0.005200967759948478 0.04587563802915931 0.164125672891118 -0.05404712422105577 0.03109684852960496 -0.03001000024061263 
0.08491501213361499 0.05527023834540939 0.09809504058008341 -0.1157494512624162 -0.1283240631392275 -0.05251214764833186 -0.03676657355944914 0.06259052467106793 0.005666738916155395 -0.1138624430720461 
0.125694630190566 0.02913048681331008 0.02396448134276854 -0.09952733331214986 0.01910957924031828 -0.04273013958416143 -0.06469314848972302 -0.01382795157554085 -0.01956347146200557 -0.04273321479274714 
0.05289523025637403 0.0008512772555814783 -0.07166542943826101 0.04966947106432858 0.07375703706494481 0.00456177758421793 -0.04988066612808248 -0.09661762885852575 0.05313842587908648 -0.008951450537646923 
-0.0305298049345156 0.003965658287834657 0.02582389697639335 -0.04542008150160851 -0.03537368500504082 0.0102480075100252 -0.07243212534574921 0.03243343188503745 0.01249453056736309 -0.00542909273854484 
-0.01599803406147986 -0.01202781163041656 -0.03276914840363736 -0.02916585085163952 -0.03025154102730245 0.01135063651912488 0.01601305548111863 0.02044502269280117 0.02786566290991731 0.02632768347189811 
0.003170583053701779 -0.0454366751867844 -0.07640835636650692 0.004470739505524864 -0.03295822773571058 0.0212459052675748 0.01631538888174107 0.02996394302485744 -0.02132299479455864 0.05064785011142382 
-0.05388382839941473 0.0168902419371108 -0.0852850794694635 0.001198425612004217 0.04718910784676745 -0.06441413789456399 0.07032838668272633 -0.004413344598567201 -0.02348617145049449 -0.06946145088659014 
-0.03840736608871904 -0.03586548269768108 0.0349664659943676 -0.05798000669684149 0.01749096434425398 -0.01105396245368516 -0.08262704344239508 -0.04033674440472312 0.07286288042080634 0.01543635291275647 
0.06681327470261431 0.01792624364607073 0.05079410508758698 -0.08176166275389297 0.006742324976802791 0.009223250812810647 -0.06287665872524455 -0.01845675479103307 -0.03910051230527896 -0.01712093169474789 
-0.05104623627754418 0.08158897582523572 -0.0288035271802134 0.083006906562163 0.05103772090740848 0.01826227435162647 -0.0136467324931721 -0.0774523761292318 0.02537586463818563 -0.05612050959120308 
0.0507192318078223 -0.03388578497674916 -0.0231079037707509 -0.02903179977351334 0.05459138248038503 -0.03897379012609626 0.06627347911104191 -0.02604167238925472 -0.05166939309591816 0.002802168655071615 
-0.00859389503888428 -0.03235833197497798 0.02546566617537573 -0.08726493398598187 -0.08863573744051645 0.02787115168950513 -0.07251744330545429 0.01155535516990436 -0.007265855817983464 -0.08952805183621336 
-0.03005085158678974 0.007773928263289103 0.02377132264748498 -0.07533136662662251 0.05549467746518371 0.02906872908325148 -0.01161502861096458 -0.08295005828004404 -0.01187897388405884 -0.07869507244331526 
0.0464731369088209 -0.04889443228645433 -0.0406533528592879 -0.03494843201841899 -0.06494306948485828 0.00889016834656043 -0.0341153271388111 0.07895862906036108 -0.0002455770704042425 -0.06450718703853801 
-0.02451985240261082 0.001655347345249621 0.06494165576960359 -0.005980183920826531 0.002146668817950581 -0.0007738914169119754 -0.06672555255203537 -0.003830075922194693 0.005301518268197171 0.0368922851376834 
-0.04325804973948739 8.758259442168785e-05 0.04179374902375156 0.002888720740279857 0.009124775504330032 -0.003918436667962754 0.02354430074224728 -0.0156373015364576 0.01495656203392805 0.02772779337557073 
-0.03232634678711171 -0.01273575714535989 -0.006937998574133452 0.03011335345561881 0.03901574797485093 0.005065813512548595 0.05244548999506048 -0.00220874110809871 -0.05127206425597342 0.03480769457028057 
0.01084974278516966 -0.09727866018043972 0.005064363819383091 0.04275641628281056 -0.09701182670694349 0.0007745885293037231 0.09805988778518261 0.03204555043478877 -0.02943710673006221 -0.1163479994840554 
-0.04608639963723355 0.01390154095853169 0.05858413064834215 -0.054976028030427 0.0290743330325837 0.008999367089609312 -0.05531576166618993 -0.0316265299724999 -0.01642047448384179 -0.04751108868879253 
-0.05255719942959234 0.08546333058941474 0.04311750888407202 -0.05325396692658391 0.1107724296923934 0.02418628928991457 -0.06623224238794961 -0.05324273795361865 0.01335185440209065 -0.1208670045307961 
-0.03018903216540542 -0.03235226973090107 -0.02041187698888581 0.02830872469159339 -0.006412547546780713 0.01224268038436316 -0.02723590668928761 0.04417801929566318 0.07051862578258912 -0.02773768396579794 
0.01359000198652893 -0.0505499831803535 -0.03580186135417224 -0.02760151585366789 -0.1082776788299441 -0.07261936732416359 -0.01676170401482025 0.02070839229831189 -0.00452052542349104 0.1081274238740617 
0.01355100203317163 -0.04127759238942436 0.02980915086401211 -0.0766984618945564 0.01323409152522752 0.05013220290081964 0.01399084960250533 -0.04064744803381837 -0.02073165010290708 -0.01050234138778557 
-0.01902444702549173 0.04237856311295919 -0.003023288723660325 -0.1096922507379047 0.07015379092285193 0.05627644252226132 -0.08071971103744306 -0.07082313804366004 0.00559578240895314 -0.06157205519981497 
-0.01847071049345799 -0.0493494216571619 -0.06743380577358891 -0.01083913345457671 -0.01899013843678173 -0.007959746713198606 -0.06205719557104004 0.02274208590401501 0.01644477960398395 0.02354790036193613 
-0.085369421688202 0.01480065092232954 0.02761639925177489 -0.01546695030052291 0.01124124708973842 0.02193511978914855 -0.01481205664185953 -0.02967812102760714 0.04011629718430114 0.03427506715613388 
-0.1251074305363179 0.05687837622737256 0.06086398213407297 -0.005432821662020774 0.003004521672585993 0.01413358419026446 0.02208048350936158 -0.04520795669025591 0.04525234262895043 0.002021685027314996 
-0.0909947303606444 0.07080658773940124 0.0263115245438563 0.01779947886416468 0.05211439431026282 0.008329967546992355 0.02711482133352103 -0.03186463355152752 -0.04246205745986161 9.344138814925601e-05 
-0.07735893689815328 -0.07168455757499083 -0.05789802591271166 0.02859938646017603 -0.06056682869779605 0.01051650557323176 -0.01769163792992803 0.05000661792310319 0.08938475994214792 0.01853114271192555 
-0.0777389527967916 -0.0499276325003284 -0.007124532145065463 -0.02245936288019571 0.1364956915385444 -0.03755133806739561 0.1231937796220801 -0.06408777149999047 0.008308731305841121 -0.08779157049374861 
-0.09947714476761928 0.0316149897965246 0.007098794793320124 -0.01962228093894621 0.1167702700000734 -0.002560058884402606 0.0296726840729399 -0.05283034067559503 0.055525526250261 -0.09858117950015742 
0.01258880456522627 -0.04767975992570429 -0.03221743789954702 -0.003111906348791683 -0.06741031269983849 0.08317997703542619 -0.01920730971800262 0.005245976685507465 0.08201095944934707 -0.1074150223352568 
0.07331273135950843 -0.04014671854568402 -0.007513249333775138 0.001175387470858132 -0.1440141134543808 -0.004070024112192332 0.03322774267604071 0.02287286104445277 -0.03376330453453406 0.01119460834877188 
-0.07114492135935375 -0.03958218302276689 0.01320145035215436 -0.01219098668602146 0.02966049670604533 0.003332984976170687 0.04758413832367757 -0.03758195748645137 0.05246950200971002 0.00188703893650275 
-0.0816578981100277 0.007302286572627297 0.03238056057764684 -0.04622653986008082 0.1124784792971903 0.01060155706030336 0.002975942417096231 -0.05838054545884756 -0.01150625657621196 -0.04093209052459414 
0.1138819718526595 -0.07898408651910713 0.02153988314167628 -0.001806791873934042 -0.006695011949463993 -0.02276568919532213 -0.03401461678727419 0.04538974935511138 -0.09305152191350502 0.03985130273538273 
0.0138814432940902 -0.01416107454153686 -0.02645009615983326 0.03706136514862254 0.04166505097412183 0.0081930518639463 -0.07617400618391509 -0.007692506207781444 -0.01535368565124265 0.008596132861149323 
-0.01388629004162091 -0.0202234117764786 0.02908468776014416 0.0161207264057291 -0.03817061627841498 0.00565150462946324 0.006754068232654526 0.01531585192055316 0.02290493269182266 -0.02669294930424287 
0.02210246856167731 -0.01480693492609405 -0.04827851089015964 -0.005214111241398178 -0.03414377908620726 0.007012036469021672 0.08581798908432897 0.04006942681556449 -0.05741645377373163 -0.04751054750362777 
-0.1428503163048875 0.05779117793747188 0.03638807102251724 0.06312410856304751 0.03823705959221782 0.05173382336883794 -0.06007925999202808 -1.372436270113506e-05 -0.01562796149301771 0.01912733821820129 
0.03543877485068724 -0.06631246241628176 -0.03254698948763508 0.033714586994271 0.003303419185836717 -0.04341265033305921 0.03793077120292743 0.00158118571878383 0.009514815537149009 0.04941258122282827 
-0.02354464190441659 -0.05465949489948364 0.04907655920032324 0.01365139191684542 -0.02920198094204459 -0.001576859301591925 0.09331979023911412 0.05510108934272017 -0.04838042332567735 -0.05440401030490014 
-0.01840924972984966 0.09091265036238126 -0.01847345825576225 -0.01965609822029387 -0.01294980918565998 0.01062980543576126 -0.04247133524431877 -0.03528455582222464 0.09904334721803361 -0.0836413534729615 
0.009936742132579102 -0.08018677996698263 -0.03369708727397615 -0.03310176391241641 0.01471318041356362 -0.009386697410344688 -0.06661015630369482 -0.01029786096783296 0.1045751097249101 -0.0402681839496946 
0.005612741651383075 -0.06797769863866582 -0.008923583785224133 0.0347575758543005 -0.03335650306305801 0.02232075352181324 -0.02662218908430872 0.01434442559995339 -0.05415587311240613 0.09901256221507145 
-0.01956525234981248 -0.1232155499512474 -0.01184468489361692 0.03024234823730785 0.04378111087699778 -0.05662085946690653 0.04005542866210117 0.02191352787709901 -0.07150641101993076 0.09934689590819454 
-0.03329643814884362 0.123474948177394 -0.03076001006998086 0.03143919155599834 0.01415267088676678 0.01209760799798911 0.04137635764139362 -0.04051229443213961 -0.05516360473238676 -0.05078099291748214 
0.00504668980667977 0.03744272708898303 0.01747890786624253 0.00618455652678044 0.01465249215065047 -0.02617847828208385 -0.08669752367065209 0.01296424240879466 -0.04480123784622875 0.03160828150826072 
